{"linear1.weight": [[0.28901850566045534, 0.014448245749879646, 0.012074899623100195, -0.04234511315747632, -0.0811947657168803, -0.004569065045467044, 0.03564230696327497, -0.08487065937931187, 0.00018350291325831163, 0.0009608773001361233, 0.00814868831147907, 0.3502388690113277, -0.002623247246976897, 0.00015748757149188893], [0.330377254417903, -0.003784601045061267, 0.2491268372328521, 0.15583856849542302, 0.3663585513159216, 0.10469084135636163, 0.29309098667678435, -0.006679915420145925, 0.1959078495108494, 0.2856023873370016, 0.2630764624639145, -0.08603345109160156, 0.0003043766242682704, 0.12431197844288787], [0.20064413828625088, 0.060177945417425986, 0.07078662267662593, 0.0929044923405305, 0.16016408718263062, -0.02294165755258212, 0.05912938660153874, -0.01853626101664138, -0.08772689308703403, 0.12817070957498994, 0.18994470235279287, 0.144816305393405, 0.20784636560284783, 0.1324498522945672], [-0.05527373287706061, -0.08984052352720628, 0.07796246819426927, 0.2326339195167647, 0.3147998234978798, 0.258727152457414, 0.19036190145281393, 0.06108125238434542, -0.06671957719004659, 0.1420980075812723, 0.3437021766556663, -0.08004202500240057, 0.07441830382776317, 0.052052585872535063], [0.11644174485698716, -0.11014581102065678, -0.052852590612065584, -0.03676635459412285, 0.11798254566623427, 0.17575502868787762, 0.3562936856669287, -0.07313613602442964, 0.3216149217525649, 0.11401672397724048, 0.3921453424913117, -0.04299765530631412, -0.05414036961006362, 0.0809619167423246], [-0.0004696921237145357, 0.3598724441718273, 0.07989951422150103, -3.472368236423775e-05, 0.33757380865251024, -0.008883596981103359, 0.007215626433798909, 0.0014095761686489122, 0.00541448991148134, -0.02987659530779495, -1.377242302124654e-05, 0.3339354678484803, 2.125519559247068e-05, -0.10943750690954993], [0.25838991815680895, 0.1682132236511456, -0.003042135477916446, -0.06880139492133215, -0.11463550860902219, 0.2951987065307533, -0.06464876803244184, -0.062403090115628466, -0.12570858861523102, 0.1935828211973444, 0.0195272536798434, 0.33321698989670684, 0.1370275802968461, -0.03308332888918327], [0.23733186034993464, -0.11256535771861151, -0.11751163578410061, 0.2105621264662203, -0.054469752748884735, 0.2691825129161544, 0.32303052976178664, 0.106992907393806, 0.33470399334879986, 0.2717927478014703, -0.0485768898761682, 0.17591956665929118, 0.019181191922672446, 0.11491522575584405], [-0.03931790362924864, -6.276138679928995e-06, 0.03685116710447259, -0.1310189124157937, -0.016605624094203252, -0.019634639594169705, 0.38982532008528925, -0.003798242214711305, 0.0475462566463261, -0.017795465389775042, -0.0009606885438140063, -0.0021529646193301027, -0.0955422227757594, 0.0024777143774934664], [0.3344457786458475, -0.0499582320949099, 0.3743883346218455, 0.07737734546989418, 0.040243165208497245, -0.062198116382609164, 0.0159455021479544, -0.13474648317734964, 0.017566047933294755, -0.11934418460573634, 0.18123213467981275, 0.008719504608631856, 0.34522460878058053, 0.09974173231619518], [0.3499397287357929, -0.0061412422333231445, 0.29185453630820013, 0.34557368700299135, 0.35996922913121626, 0.3552774688766163, -0.026639259079687335, -0.1050125973907351, 0.2664498319738267, -0.03309790746773341, -0.04928108735343477, -0.0592622623906525, -0.02613516786578518, 0.17177455316407506], [0.06359088448773627, -0.0059948632187223905, 0.08402907645742094, -0.06411472522019862, -0.04888879479744677, -0.04738268553319473, -0.1094931374432179, 0.2168221195801929, -0.12201362779433048, 0.01694248230063229, 0.32630794971114113, 0.2866044186528528, -0.1122482100939604, 0.3140983907069449], [0.060673302398075106, 0.0006791260812158141, -0.0016826144775687302, 0.0265866651821087, 0.30703408727494297, -0.11303872961284422, 0.3707734448485888, -0.11915556259009566, -0.11932402494552631, 0.08794879496195986, -0.13329292027827983, 0.35693363869476175, 0.006501373369151353, 0.07745554927208163], [0.14047920920507342, -0.029428576960368654, 0.2661888327261795, -0.02070954577157456, 0.2392996119773111, 0.2201356155158618, 0.15442176118972292, -0.17711807156293974, -0.0798773248043282, 0.026870799202128638, 0.21872349339559008, 0.12762910571730662, 0.19104890550591902, 0.25706378347551245], [0.059322836769820086, 0.322472413991852, 0.2962548124033535, 0.26363591950066595, -0.08563522892962641, 0.1053424528940396, 0.07741169575748107, -0.06914954770616619, 0.22406221066569715, 0.04873574710858949, 0.09058157475199373, 0.29615686724170864, -0.04663673590158168, 0.22569136487556923], [0.011205877407074677, 0.1625235597436893, -0.019917214661552156, 0.13025720490628453, 0.17201511787888749, 0.01586708272983059, 0.015250449140110282, 0.33084261096571815, 0.21476798470088948, 0.07267138844238652, 0.25119543752622886, -0.020395099978750497, 0.1173579088663474, -0.05055276968519894], [-0.08430822247845982, 0.08476855944343942, 0.1546450031642001, 0.308271307734467, -0.1300019349612626, 0.06323538606765672, -0.003641631111424196, 0.26055004241747576, -0.029747382570435174, 0.3051310030136942, 0.11702472548325245, 0.29843144154494844, 0.2873729272770157, 0.040170514913795044], [-0.0676068019933416, 0.13813623775024444, -2.13169371322142e-05, -1.6948208767622172e-05, 0.009591361903241755, 0.017610923119034876, 0.3071326651665481, 0.06487725790270292, -0.0019777220328102605, -8.941423151347215e-06, -0.0011395076584528978, 0.12839015781388255, 0.387310677384835, 0.3530632662322062], [0.10715200315552832, 0.14841002588005553, -0.05241082072817524, -0.10318519583093418, 0.1968435581331058, -0.02279117718222699, -0.1128122020238625, 0.1513604864443992, -0.04841041476308032, -0.07580199393008485, 0.04117461922996883, 0.1568992653914168, -0.1253554675726704, 0.028184459914633836], [-0.12928460512568746, -0.002065975121517524, -0.00010616320631122549, 0.33877104736685504, -0.11025214832545982, 0.0024399575807174416, -0.021607195380824385, 0.04888755523580453, -0.09646046432143661, 0.0773682896894148, 0.034396928670241585, -0.04820414458967988, 0.06189898470496946, -0.060655497495114764], [0.06473365431950824, 0.03564146789535948, 0.08944327372607347, -0.08994094648959061, 0.38598888565936323, 0.25059492497742275, 0.1761874260424456, 0.07456524312520912, 0.2795120757915008, 0.2397789707774656, 0.06310755683757165, 0.32491258854421917, 0.03636575863737612, -0.09026083387724265], [0.2099580475254558, -0.019676387050042207, -0.017269206945131555, 0.0159479913072532, 0.008912712359425024, 0.3291148933656884, -0.1083884510720165, 0.038903755692909846, -0.06558163860187433, 0.377693055916537, -0.09116815341531444, 0.004172684525510908, -0.12433079267502774, 0.21259742112133903], [0.35713740509417286, -0.051394577886076445, -0.09517881580569033, 6.525697227007386e-07, -0.011969132972117746, -0.01854200268085884, 0.011555108987887861, -0.018896057036852636, -0.11275715815334074, 0.31237611588263753, -0.07894992937427628, -0.11053341146854861, 0.033833114993635796, -0.00033112985597366683], [0.29129641429671616, -0.10648738816969186, 0.23003018257234398, -0.10781437443019617, 0.04110689464797226, -0.08183205705902186, -0.0005894525156578971, 0.16428189358904224, 0.2693133979008173, 0.00368559107978469, -0.13249164485784196, 0.2695320623939815, -0.0577283918930897, -0.1264317270867693], [0.017708625142062638, 0.083851792449266, 0.2833936480078429, -0.07229960847077324, 0.1840542271145064, -0.01886302648878504, 0.24984345692882298, 0.2648792958605718, 0.04947523420887943, 0.05520565705282873, 0.35010412914538597, 0.31057442342343905, 0.324254390858297, 0.23289981524372655], [0.07413174380054027, -0.11754991420302548, 0.06026646967684477, -0.12092078701821589, 0.3206503699691005, 0.3397396944576607, -0.0858792381534126, 0.0011430139103731475, 0.2526526776670392, 0.31670715324099835, 0.3340786192332501, 0.25578657792676623, -0.10188853753825129, 0.13862248490221843], [0.05550476182651988, 0.2386728057928474, -0.07926876736294432, 0.13357663590154445, 0.3645320907861981, 0.04587160913208161, 0.21148754019776334, 0.20841881280561483, -0.053970866180114055, -0.07084290462581076, -0.04193417422407663, 0.23669045082044346, 0.35971955380468956, 0.331666088346593], [0.0753641817492221, -0.09030869476864116, -0.12842817457763403, -0.07174290233228216, -0.12252899936558505, 0.2922364312348808, 0.30807622509197014, 0.3473221982288837, 0.21981249779915607, 0.045109003561984086, 0.0719214422866717, -0.028125788296009743, 0.20790838490262037, 0.17227490139201232], [0.07247871502644941, 4.083226955292634e-06, 0.0019771647954937776, -0.07514974649403852, 0.36085077462601944, -0.017845970067139397, 0.18485403991634922, -0.0864914400304398, 0.032862316554573924, 0.19104805548787174, 0.2868725400892378, -0.06144522914311017, 0.21874401249082664, 0.01918943570753797], [0.10872575381324352, 0.054879655310103026, 0.24572076018111189, -0.05964618442590856, 0.21350117174908778, 0.036971578056673254, -0.06416529206231618, 0.16401203803301986, 0.044630606374233724, 0.050076995559894075, 0.01747371858792108, -0.0755571158697204, 0.3081806567108747, -0.11110597666005849], [0.01677810916591316, 0.23129396184982393, 0.17085203631601176, 0.05513663181509642, -0.10628236965910083, 0.12036942993682748, 0.04874525425400118, 0.09402547339370991, 0.018187864764642073, 0.3305317836837568, -0.09623142363669343, -0.08543833191307618, 0.2864186744466171, 0.42917663227490754], [0.20177227807549308, 0.11557006125993605, 0.07379027724286359, 0.293494928615922, 0.08517020428782554, -0.09126517584465114, -0.03167029498141092, 0.3785633458615804, -0.09463831649200564, 0.2904245092934437, -0.06240296558214441, 0.016650145371789857, 0.016484399223735877, 0.07620637754206332], [0.27909571495325014, 0.28911131407587654, 0.3010304141060352, 0.08915113648749214, 0.34043635899371133, -0.10584598114157262, 0.32627566984252293, 0.06257696602047846, 0.03968256606112652, 0.3509598659670083, 0.09780475881210364, 0.024713625715394334, 0.15461058832659505, 0.1040903177428455], [0.16918557066154943, 0.199028143629439, 0.044582927337413605, 0.30484118296983487, 0.03957947141646096, 0.16802555515415635, 0.06533582519693425, 0.2952038199013023, 0.3122465770282079, -0.010338318987858988, -0.02589870885865556, 0.12859052057019835, 0.3295420326848756, -0.015226934112011738], [-0.051818285047401116, -0.1168803675802448, -0.037659073084520225, 0.2778520710220219, 0.08722161943821835, 0.13129680555980477, 0.1170299396086642, 0.3060757177954479, -0.10567614910648376, 0.0029765832331483584, -0.026751958914130798, -0.12325449955511164, 0.23372916346912714, 0.2344766429913751], [-0.05642786971303705, -0.016580821796184576, 0.1470520589415489, 0.34986583711965835, 0.14701580544799742, 0.19449196985497885, 0.3174743471098741, 0.3116860794401528, 0.1333463178726907, -0.056532900049947946, 0.35245277464753977, 0.35324320164941103, 0.1166878701972866, -0.020950713829747093], [-0.04326300502941718, 0.35475963761593443, -0.12786618890716936, -0.11338785047067163, 0.1643230694255782, 0.245577243275778, 0.32487659122767343, 0.32232399642272924, 0.015240931287620975, -0.10807073865476322, 0.27053644514690134, -0.12439377113245624, -0.05884772401383358, -0.09359145483167089], [-0.004605917498671755, 0.343498677237508, 0.3191877089567262, 0.05122051289063936, -0.0646662596754118, -0.028928772331688717, 0.1308107520978871, -0.09894286771649066, -0.0032249587021514147, -0.12748587742606815, 0.29728120315810763, 0.0890080999111526, 0.17129977248487144, 0.10379312298438272], [-0.020794717922181426, 0.07830232901243504, 0.017739256663198356, 0.14369564946041327, 0.33531858488584193, -0.05042976410083036, 0.11326548769656758, 0.3071432468792663, -0.07766009049106737, 0.18162355101809863, 0.29820673157682753, 0.26694798165866374, -0.08681547096945429, 0.3257465377029705], [0.25931840987087884, 0.22527146365707323, -0.1313181776344761, 0.02015005133472858, -0.048687768595196565, -0.015195722899255623, -0.05559335738144671, -0.03793224813212916, -0.011046523663817925, 0.060939165762759775, 0.022417812223612076, -0.0682947014929121, -0.1237312354204636, 0.027353900052063833], [0.24409906173182822, 0.3291504808699976, -0.12027756039807912, 0.2058716961027207, 0.0066379487509424006, 0.37385425854137605, 0.3071397291667117, 0.19016029130515763, 0.1256474649137028, 0.3799261540331079, 0.32878922656813053, 0.09935629985672663, 0.22196749356921186, 0.23961969648419124], [0.3220554756075745, 0.30546387695769156, -0.01827656344446415, -0.12754364266793472, 0.3953840819660503, -0.07540743813057843, 0.07451454175067442, 0.030087397353741042, -0.00021399989976658728, 0.014293868597835645, -0.021818444366423814, -0.10082662014440105, 0.3563027184591045, -0.10655967069911526], [-0.07635960173469684, -0.08369120293800598, 0.3502882184004636, -0.09702026877735682, 0.04183840847260865, -0.03549964567678468, 0.13405836208803168, 0.10383722354312971, 0.015419096408541574, 0.05107375220747165, 0.0016542637114567728, 0.33932481149746696, 0.26007372165498194, 0.39101682957143075], [0.17073658879586728, 0.04055843730628746, -0.0006368901115695964, 0.13143594670178887, 0.00984513781824631, 0.24353441422423758, -0.126231381998378, 0.35771072620135436, 0.2075568830952513, 0.1862414190766193, 3.075998782157259e-06, 0.048181170479470396, 0.3590526165136747, -0.0002724631794331611], [0.270299945443656, -0.11812151108514882, -0.1065295026187603, 0.019878192167407816, 0.22001203026216926, -0.056794171507182835, -0.02591932512949254, -0.12000546456809283, 0.10542726316472652, -0.04193008049292851, -0.13613014647442467, 0.08132288268845565, 0.28576254194244666, -0.04981621557516272], [0.04048276867766677, -0.09435905216961532, 0.0017820089561996573, -0.022642176697786277, -0.020235271564240806, -0.061682270977965296, 0.08290435590386319, 0.01797192178079161, -4.0372947944600074e-07, 2.062103833688357e-07, 0.0015911542293763463, -0.11039328724306874, -0.0656643536050893, -5.2804085034863235e-06], [-0.01475236855815908, 0.01932366830766542, -3.630874603518005e-05, 0.35123002819131666, 0.05230295522599575, -0.03193763016459402, -6.539337668445171e-07, 0.0019047522688082942, -0.11251827237710882, -0.004032163728139604, -0.12071175800099991, -0.03353163417833963, -0.01228174655453048, 0.013886716406097456], [0.1288140732168894, 0.2513283780081359, 0.03407322911806515, 0.22730545872618194, 0.05154444292709645, -0.12905318111395728, 0.15953946928103233, 0.0372135219254255, -1.5394265555926402e-05, 0.14531149685854258, 0.035749818251065664, -0.027806002551175272, 0.07219977910030614, 0.0960284702035995], [0.021099724400493382, -0.0793726949409404, 0.3376510611273523, -0.02043821866213496, 0.002196721469724549, -0.012029402476440566, -0.052815053147108756, -0.01928455332633934, 3.5630932261055845e-05, 0.03211175820567728, 0.0018231128665724303, 0.0003245386191076038, 0.05277331869267603, -0.06065662161909002], [0.16464792500495096, 0.3760193798629343, 0.06908459320931308, -0.051682100208711494, -0.031577951214978736, -0.004006503496183007, 0.05478762437472445, 0.010522964241416776, 0.1641594633257519, 0.3494466115320883, 0.3397352681674748, -0.04681847441876928, 0.12138851002003564, 0.32008591603867803], [-0.05808931441197982, 0.2560531572804808, 0.20959994079873756, 0.23600338035738247, 0.2705238394211701, 0.36201105744099743, 0.3082512065697606, 0.25451899840037095, 0.3360892479271019, 0.36475403188259703, 0.08090769448149886, 0.059524317081525405, 0.0537632768012706, 0.03488008733779291], [0.03873864529932572, 0.36546943961742784, -0.013150460125406372, 0.009607677534792134, 0.2493101884111932, -0.0608800555954822, 0.03215429661303253, 0.016694439551925625, 0.0010515559760365177, 0.026464277893422688, 0.3138158977390797, 0.05324548905556273, 0.34546020704850966, 0.05480991381408876], [-0.04747118411308043, -0.051077813291820234, 0.29977059387843213, 0.2718441397456102, 0.18315840484535542, 0.1297483594460686, 0.12172225096888989, 0.3575790143766152, 0.28238516274941816, 0.16030945279939865, -0.035995643569554286, 0.16477747267955847, 0.06914747766304499, 0.1357856779407431], [0.1213939079082839, -0.013535864739307738, 0.3108685098438264, 0.3384954647365393, -0.05680735800850074, 0.24991704613877141, 0.31049782594914044, 0.17523450508811778, -0.029484937259909444, 0.2181104505494866, 0.3037449376985612, 0.14456504650171478, 0.11353805940370285, 0.06966961414975824], [0.3608733411596178, 0.11442760469096518, 0.041698524227607385, -0.0735772858260515, -0.05503570341338065, 0.19509718367867504, 0.33643487072154576, 0.27851380937422215, 0.3089920069069696, 0.21226378152601186, -0.10927804687288598, 0.24850534592520698, -0.08825132182472073, 0.07735107939748469], [0.23136975601773285, 0.3092694477603559, -0.037592600990230186, -0.003388661239903208, 0.34435075271300425, -0.004310682975885023, 0.3280892206242487, 0.335046454559797, -0.01644208333616792, 0.16373640116171997, -0.10115770119918123, 0.0828552235203655, 0.13885972373493208, 0.3294227841572126], [0.10086044390442249, -0.15673309454332113, -0.06602625214205175, 0.27919068058163166, 0.07374984791027361, 0.14886358300536076, 0.20079098643019733, 0.16361101898872096, 0.21036055650642124, -0.14934039262247972, 0.006269942212481524, 0.3314724069545903, -0.08457691839442816, 0.10525800668296893], [0.026255136197289187, 0.020179639011911405, 0.04378564429137927, 0.0006256337516169192, 0.021888094422154718, -0.13186210945103954, 0.31979615318546484, 0.02734187950030755, -0.09902032998294451, -0.00031017094266316494, 0.05083414030777109, 0.27693568766790816, -0.007381940302357693, -0.017323369492461972], [0.19664753829318501, 0.1928493038370908, 0.06600039624497286, 0.23311824950922358, 0.057154924384963356, 0.11900339070843743, 0.0575011762205925, 0.012579096291475357, 0.3527030142208081, -0.002708653937637514, 0.25047015092231295, -0.10365200563285945, 0.1934620170757212, 0.025707530007556077], [0.018814249136166333, 0.04804073839858489, 0.10078649573933993, 0.04909484677799697, -0.06695265026905632, 0.2459408138089121, -0.09092644330657286, -0.020278939845792536, 0.3118833525290939, 0.2907836919888598, 0.22059013520040102, 0.33914351466377585, 0.26793469896924266, 0.15774306282536196], [0.006010160014451396, 0.2893594073789918, -0.12346462324488129, -0.07898122067573997, -0.047158301151131295, 0.23931366332196807, 0.05766258927950276, 0.0756755168786683, 0.171341820781384, 0.3333275284942648, 0.14254427959707067, 0.18177224012199883, 0.2451541167970621, 0.07456566752823639], [0.012934025480499973, -0.13806166111473772, 0.23448969929514463, -0.1113564170060143, 0.06679478802703806, 0.29746541075067995, 0.02941376614452678, 0.08678187755254742, 0.3185789663504777, -0.026765647770153077, -0.08106602506009325, -0.046899874962406496, -0.08879093334783952, 0.33720827464160585], [0.25332396160912674, -0.009783885008883777, 0.35021097445182114, 0.3602753331362154, -0.10215789064670752, 0.19594855008279558, -0.056962624964862346, 0.28705491288126395, 0.24275095698383714, 0.024802929277785234, 0.06008668388341927, 0.10899401404197866, -0.04495834922538235, -0.009536328142535938], [0.12117654372871438, 0.3901394807926864, 0.3309994403043709, -0.09825072540127851, 0.32439354597561276, 0.3350063212060057, 0.3624959738084746, 0.07891924020983318, 0.3465750263287426, 0.26403199899436475, 0.01814730757363463, -0.10576099789584428, 0.07675789721482314, 0.05905827235689171], [-0.025795002071546023, -0.12134850733803863, 0.0014330549469509005, -0.1140560072509221, 0.0055441990474527116, -0.04412684157047774, 3.1718434885421725e-05, 0.12663958603660364, 0.13466465225138205, -0.022951391314862506, 0.11559045114752135, 5.112966178675974e-05, -0.015793599481652352, -0.1270060910524449], [0.06664947663427855, 0.24677694425519464, 0.0037823907863286247, -0.04505817905838299, -0.02617906263251939, 0.3721935800865074, 0.24896968646557988, 0.37186642215357435, 0.26975015284645515, 0.24052005499207743, 0.3261565927901752, 0.22798355729232225, -0.0222174786355862, 0.36973865286860585], [-0.03368981176560616, 0.0666270679717891, 0.1087576964271737, -0.013375879848856452, 0.35151052722577886, 0.15756483219217637, 0.0678164207878277, 0.34061935960903134, -0.09988205690180854, 0.05875416815165725, 0.07303916257535001, 0.08697391845753574, 0.18209684694950626, 0.10555854790815979], [0.1307209845374148, -0.1242882831177762, 0.17534168167354947, -0.03140161988205715, -0.06742122947763288, 0.25256182788981796, 0.028008709318446276, 0.010222427490265387, -0.07234397925172951, 0.28678264351892097, 0.08749996557995282, 0.2593257676461747, 0.38007872883087496, 0.32387820111694293], [0.2629975042472354, -5.2438171005916265e-06, 0.006030223720435368, -0.10274785012845261, 0.3395588152932937, -0.01037105085471198, 0.25655779318432226, 5.56926093212205e-05, 0.16891039034166577, 0.051631520695083664, 0.39453769382085524, -2.2689513444191697e-05, 0.2616776927420328, -0.00034361678816131213], [-0.11199863606191399, 0.03936767760204408, 0.29633150560225174, -0.09039530118207587, 0.2711271828935656, 0.010477505423917401, 0.024025538116456902, 0.0274541180914302, 0.022960334270102075, 0.04836955082890374, -0.08425341279900386, 0.2736019171099477, -0.05052404887267996, -0.1272521889763722], [0.18717940521985793, 0.14498963997617295, 0.060078415151715456, 0.06785385409176417, 0.25799049646954775, 0.06615275712843649, -0.08410298936762045, 0.20074805472075702, 0.023685026148779115, 0.23614267413633225, 0.3424934596449289, 0.1500891185484009, 0.17466607471640655, 0.06523971152917142], [-0.09054553058309965, 0.37611159778631437, -0.005852568494248165, -0.02091918651817753, 0.3122837291012827, -0.06619054516087246, -0.04496598321314868, -0.014819160266890148, 0.008734805707036445, 0.11457863564508286, 0.3221069967667162, -0.06934273587133383, 0.031723959574686864, 0.02322004090925531], [0.13860926790747832, 0.06044961081655814, 0.07696515501902267, 0.03284907139784215, 0.1273770657840737, 0.2870506497829834, 0.03373325440669074, 0.11108064112131509, 0.07906340045924547, 0.16884006264524806, -0.006006575852372313, 0.2382402901027671, 0.21409369819384258, 0.09244215395602767], [0.004502494832784108, 0.3500077012254524, 0.06772622958301813, -0.039230856764743104, -0.10041735175408883, 0.1424668307482254, 0.12346392109110549, -0.08684104273868852, -0.14611199943600756, 0.0017330277820361715, -0.07866460179709328, 0.006659960916791001, 0.18493525701173727, -0.0737730869009497], [0.022457701802148195, 7.32099821246517e-05, 0.02855282767718029, 0.0010816693064419488, -3.731631862596686e-05, -0.0026209681568464555, 0.05339721871867967, 0.006556587767880989, -0.07247235934575255, 0.10717300148455577, 0.05420811782318269, 4.801103887754745e-08, -0.08344610515319102, 0.053552129057122755], [0.27624412267972326, 0.13739128580890797, -0.12415238269291468, -0.07288366054172261, -0.0977108769575707, 0.1380176571682675, 0.22247285725801857, -0.08203726704600389, -0.12363025759356852, 0.022322883239150975, 0.22926856108594162, 0.04337645720616529, 0.37853164031948394, -0.14031224948954507], [-0.07608747945579834, -0.03446735986498681, -0.029617464399121756, -0.025977495378961036, -0.07210758401597382, 0.06504568354595505, -0.025257368507479363, 0.011727822694513581, -0.12689494955178343, 1.0934779614899958e-05, 0.022861864782287734, -0.11971500970319984, -0.06296607740077781, 0.04554291199527176], [-0.07279247437853291, 0.05790918786486406, -0.05660712489448897, 0.010618785239755985, 0.06137380564710897, 0.0052101193875094464, 0.06803627638963264, -0.015409480427681243, -0.1010532268689172, -0.0014391908245099622, 0.35323795143186265, -0.0697453993219813, 0.05731420556332124, -0.08047016629849282], [-0.03806935117053623, -0.010534309923803513, -0.07696658250602376, -0.025663877748629743, 0.010758483524810744, 0.08050275674880857, -0.001924103846995404, -0.09403572982793353, 0.330651775777594, 0.04398358489601537, -0.07685976723343008, -0.0017600469364963207, 0.3871088868545221, -0.002868600958857254], [0.3647230788409953, 0.3563122236568589, 0.25340850352963956, 0.2529331335401511, 0.010286159824683902, 0.15909340697803287, -0.09392201746229278, -0.056181480185094994, 0.2653830911827995, -0.10815154285469616, 0.0321453015251544, -0.0823136258634671, -0.13019266058532342, 0.1963226624413076], [-0.006709302447610025, -0.10606258404011448, 0.0036784017129236, -0.0026234190243657825, 0.17977060198372355, 0.05289337922110262, 0.3036360466067089, 0.034343273451370705, 0.32541819831381397, 0.37500361461114445, 0.18371523085440025, -0.043718662322665365, -0.00656752434147162, 0.0007751129631793743], [0.02312446045005828, -0.11278070651675993, 0.22242190215344942, 0.30713235798707594, 0.06328822874316495, 0.12191124619450298, 0.025965028263724634, 0.15634911057340353, -0.13256900381478642, -0.08306855158020271, 0.054890738592067376, 0.08586062032312798, -0.004803102361352015, 0.03997587244372621], [0.24294123859112668, 0.2674297524114487, 0.33996120161230015, 0.022553525401571496, -0.1290996022942262, 0.25088415938671965, 0.030974262111093557, -0.0031098260184118346, 0.17674832447399833, -0.015500330934759615, 0.01441620515995432, -0.00014576289883603944, 0.31761883975925137, 0.23530280487453203], [0.1681201697034938, 0.0031962480928432522, 0.13512958269580483, 0.3844019869744976, 0.013591632629622217, 0.2657801761046109, -0.07556935191628923, 0.11233522720983373, -0.12957906259721108, 0.009487530585570524, 0.06163434969414794, 0.16508362996055725, 0.12024030060359141, -0.09296328301390824], [0.282855134603189, 0.13540529904132417, 0.389788852934357, 0.3064150454565771, 0.36153068662363563, 0.04128892923907487, 0.06444141901984904, 0.19935686797408161, -0.07414692302851661, 0.22457063960857812, -0.028340961696658985, -0.020751922670440997, 0.2609513974680722, 0.049787999667253564], [-1.6446010715348072e-07, 0.0532621307737745, -8.910580259507713e-07, 4.114246799290053e-07, -0.027302813735154852, 0.026142186497059555, -0.12069162986075199, 2.7711329960892054e-10, -0.08296158215577154, 0.30744137711661296, 0.041751909242341824, 2.8925114585036794e-05, -0.09448037086767914, 0.004704500818483282], [0.20040578999839373, 0.2865598562409323, -0.12238828719363397, -0.11272390845573023, -0.09110070951538557, 0.25302125309749207, 0.2927932326255208, -0.11166284882477488, 0.16920853486027132, 0.04724362404842928, -0.002968047331840007, 0.1650612914936325, 0.09487205213542835, 0.26775883044571547], [0.20687507663657562, -0.018973038347208156, 0.029463393769428692, -0.00017479514607083308, 0.013605175738313671, -0.02296553021369882, 0.35796038646319855, -0.07372927329512667, -0.00035392704308115613, -7.820074524598423e-05, -0.024467453533016683, 0.008151508720664061, 0.01263631302027551, 0.025157329450499217], [0.09400886704124901, 0.0035767983190487145, -0.10710914338627918, -0.060232627369689255, 0.06352010425672369, -0.0939121199992676, 0.018585857767017995, 0.04197345988244366, 0.049637333179326434, 0.19263509290869396, 0.07859250518950639, 0.0536874742215975, 0.3649740855374965, 0.11005071702220148], [0.320128148977877, 0.03163358362587635, -0.0080356165928933, 0.2458784817424399, 0.31260125566819963, 0.13432230432764267, 0.25199772089040057, -0.057542826505161924, 0.2058314124224971, 0.07516198506172125, 0.1916073250934991, -0.06724086824897772, 0.1873800070003311, 0.12166432438518561], [-0.006956621151251094, -3.9365036951619383e-05, 0.048042095069968725, -0.04363758681514336, 0.35113398088087716, 0.21775419790415676, -0.012693218182287327, -0.03986583594503562, 0.2794854005879308, -0.005692996073700858, 0.03430995857425536, 3.389252288287006e-07, -0.005905515389225819, 5.600142616775658e-05], [0.031639928015388216, -0.004638620092761378, -0.04416498992062895, -0.13589892840669268, -0.12820949057826805, 0.0923271033389198, 0.09005383056784763, -0.11845045422572774, -6.735321693674921e-05, 0.17832510491864875, 0.05713164016896091, -0.0013660504581976597, 6.493461959160192e-07, 0.36612788585206285], [0.34748117494142805, 0.263524074449527, 0.35636175378125035, 0.13501915204447457, -0.0789642571144056, 0.34392890560158024, -0.021801861005950617, -0.028541944491931086, 0.23341399862254028, 0.24204004350350158, 0.010678314401823461, 0.06158020165794539, 0.20130559491795644, 0.27272629925750225], [0.07341941700148913, -0.11914055866676795, -0.12122033085132423, 0.2933983006163471, 0.1893273177064331, 0.05433050691073865, 0.28577591179660344, 0.06554004454764463, -0.06952655894719875, 0.0572216546308524, 0.2740928116459195, -0.02979270995286053, 0.15214984640050727, -0.14557039754630338], [0.015469536855291377, 0.28715031142561975, 0.3216110034670165, 0.08840793484223519, 0.23425166570881775, 0.3248191177938644, -0.03654830548115228, 0.3367160263220076, 0.24610089493589704, 0.2000010710950807, -0.07535271298697666, -0.02212439318344344, 0.24046156180968437, 0.16437603144909263], [0.11607129026047686, 0.00021531658052777682, 0.39645679451411026, -0.047226932026470596, 0.020676770279849568, 0.049572974313948096, 0.2910230105934848, 0.1370394530401056, 0.27845231299509277, 0.019692265414861593, -0.020102459215062655, 0.30313827155890405, -0.024590343546253387, 0.3097461607414394], [0.0017797559165164698, 0.012089532131014493, 0.001792501797760198, -0.05372760889311169, 0.016752718044286647, 0.17416497751631643, 0.00878194088826091, 8.41950007639526e-06, 0.309562480538584, -7.044893375255449e-07, 0.004856525913926652, -6.38296223692935e-06, 9.591916729501106e-05, -1.6603472013706e-05], [0.3329105332762855, 0.2776995591811809, 0.004157395934618545, -0.12916466517980765, 0.16210642092572017, -0.1313565524852256, 0.1812766758922284, -0.09128344185539491, 0.13376436147219667, -0.09457579835986055, 0.33215223270231853, 0.019829448822572423, 0.2729582420904731, 0.3194843382479687], [-0.10352885740364108, 0.02472468565036599, 0.31135430003738584, 0.40566364810053124, -0.04314350553353952, 0.1021651116141496, 0.039455293086557854, -0.11496979623201407, 0.21854429418329346, 0.15249055439811618, 0.14267639448378094, -0.08099326899912357, 0.22594111306292983, -0.02815089221116047], [0.3274679092536191, 0.06145780698739959, -0.09754563215243782, -0.12485649031272561, 0.07063662604554174, 0.2684548191888869, -0.0392583515714948, 0.005489637680304529, -0.10554948198751819, -0.09906238304036022, 0.3489152879812483, 0.019237543329076432, 0.21202019778103573, 0.3820515037257166], [0.3198836901396383, -0.07038170550695323, 0.25006893884757997, -0.055160490899238024, -0.03788767312453755, 0.06805961033766728, 0.27779432963300477, 0.0950735741148608, 0.00023358067589376503, -0.12664347867338208, -0.13587658888032697, 0.19508092117941936, -0.08576687977173644, 0.04927009665733262], [-0.06983983859664515, 0.0944675636123633, 0.09915784311875861, 0.3886521332598208, 0.11757849743076658, -0.048786799501347955, -0.0037690679254413027, -0.02995469458769564, -0.11072982913653553, 0.09286873997871505, 0.012469471931882614, 0.1851977864331286, -0.003992898311741395, -0.11494878261699522], [0.09867483938328421, -0.07541500443348607, 0.37351723612253307, -0.039061736408885196, 0.07905990184303849, 0.18505498959686797, 0.3529099498708834, 0.1744171385898885, 0.09500069896527118, 0.25279824937460305, -0.07598116692866026, 0.2901381099254626, 0.14329260575210745, 0.26724258080692254], [0.2848257622845831, 0.048228108919066384, 0.191202907681136, 0.33691477287519944, -0.007542412919935948, 0.3145084746840623, 0.24674278197972138, 0.04262274079803249, 0.019430080894965684, 0.028631084190378686, 0.012470715842515225, 0.24462690139204873, -0.02465292037897911, -0.043823411430799916], [0.2737214438346997, 0.08408464381045594, 0.2119233127066456, 0.3009200911977113, 0.27890452077044564, 0.016778415025206318, 0.3666607391471134, -0.12279193769996005, 0.06210653036051099, -0.1336659593147148, 0.1252216496606096, 0.03711455521202907, 0.026416952034581054, 0.06960204988844225], [0.3297812573138498, 0.07272744503858668, 0.18858942820448527, 0.05653359831504723, 0.1155201057375935, 0.002823380417947392, 0.2422264990205172, -0.064714502849892, 0.26362223316557254, 0.024994055682270363, 0.08849099632451518, 0.14748985239026954, 0.041757746907628554, 0.03018227587030286], [0.12260104847559623, 0.08389204872000759, 0.2525969769604714, 0.32272468161740053, 0.17133542407740052, -0.03442482387185471, 0.28330769114432336, 0.08357913776180369, -0.10320558075640844, 0.2857282748243432, 0.06436151552756034, 0.04729485612675878, -0.12353436907757233, 0.3518505421689409], [0.028394498425249604, 0.007817525877938391, 0.34240674776176094, 0.2675350926394852, 0.23301338381048467, 0.08092337363622928, 0.010212102288353129, 0.05265429204866609, -0.012978916668536527, 0.07550496365229942, -0.06252198021283747, -0.01819824159968146, 0.3447565270568947, 0.29780487042587916], [0.2878228724122031, 0.37076321764000675, 0.010375914904896887, -5.0285812377739256e-06, -0.00025965947323679505, 0.006454485690192846, 2.5130074012823327e-05, 9.507352406247371e-06, 0.29828172140277837, -2.2638828693837835e-06, -0.0014082410523149022, -0.009483415534458972, -0.0024632913209654754, -0.0032810014118538435], [-0.05625345857412652, -0.10020643166344996, 0.2272321666958222, -0.015376021630954525, 0.03670478544722946, 0.3474323928463152, 0.08588560655629573, 0.2553629872102109, 0.21586716403839923, 0.31852572955204383, 0.1588937163222571, -0.08643090493072303, 0.07070280793136828, 0.4008979987648781], [-0.00018922499873117002, 0.013182808509365675, -0.09687430568238542, -0.09309006228194133, 0.0005409452505980248, -0.0005282042107902839, -0.005442016865281687, 0.32574015258212713, -0.06160986599201814, -0.0009473640866714612, 0.00010221184937954006, 0.014868482125128226, -0.0035358318380834526, -0.00017590183297346202], [3.2804186343361658e-06, 0.25582016614896425, 0.004275764005857373, -3.9809502491352575e-05, 0.07877858081747519, -0.0005268209788919412, -0.024787232253219126, 0.00024852966385508965, 0.08982849850097648, 0.11207789773515575, -0.1204620002773766, -0.019111395029479467, 0.04892729932883742, 4.057279560851421e-05], [-0.07545233948783502, -0.10467277873624405, 6.952836281861561e-05, 0.2632448167463957, -0.10813318560090322, 0.09848792107957231, 0.10972816483273522, 0.2675386601738229, -0.11750144804526239, 0.0848918436147952, 0.010399715394929768, -0.05262706227712548, 0.338518244923751, -0.012554863753520345], [0.0799229734855183, -0.11647094250747164, 0.11343483687931427, 0.31631949510899315, 0.0890327824453608, -0.09464637197977081, 0.034463655658093346, 0.21506835003434796, 0.003978282224191419, 0.08021838385977635, -0.03489798557866943, 0.33746982865698516, 0.0380561676396521, 0.05710860513874165], [0.05070185628981572, -0.07628683104041042, 0.049767590808848884, -0.02173524476435284, -0.000253978476576366, 0.1444892683531663, 5.156070913558872e-05, -0.0001030672002769694, 0.2986251427226899, -0.10898586748158431, -0.11000437103501966, -0.0006415714879745188, 0.043672175635559654, -0.043475334353820005], [-0.0003842330064012342, 0.3592680786542153, -2.852281374830515e-05, -0.0011016269310595162, 0.3073034214903521, 0.3647558666458094, -0.019608098286164242, -0.0029715048288095833, 0.0010031527459257194, 4.426026965838116e-05, 0.0004274123062877222, -0.10189910571856503, 0.0011048009638821039, -0.09676720126610967], [0.06986063280762556, -0.05600571457217756, 0.18262792456186355, 0.13629414125401496, 0.37698497615448834, 0.25296407457894254, 0.08631471404204887, -0.104536807982462, -0.11944657422279767, -0.07869930972415803, -0.09303861937687505, -0.009430419468094522, -0.004372748087708611, 0.11556536038453678], [0.10245998399874989, -0.08533826801450577, 0.24522385588972723, 0.21490026948873828, 0.05709560444886788, 0.07547547571786167, -0.11144026615316849, 0.25171287060826836, 0.22201713219757685, 0.3572067500878709, 0.25155459480562303, -0.03212261142250075, 0.0942200349292348, 0.036672568380691745], [-0.11924038483390698, -0.06159572373147726, 0.028324158785909055, -0.11590649661707826, 0.05859199972688195, 0.32121548414057494, 0.0001087068947681233, -0.0010332495955838455, -0.04204517564022296, -0.023176879199669247, 0.0029816820455204622, -0.12342623328512327, 0.08978801241373666, -0.08639927807487846], [-0.07622268941526605, 0.20621187733874582, 0.277479912157204, -0.09908653174215211, 0.1980768605377555, 0.27593870593841907, -0.05481954789912703, 0.17104186721199893, -0.053910509961192975, 0.25600249137124265, -0.07096641834880728, -0.12355394697297468, -0.014707921754948398, 0.11546570122165536], [0.09432261614571498, 0.07033407474520675, -0.07452427207201752, 0.1537939476729022, 0.05491517009074467, 0.044625299613579285, 0.225987710341043, 0.22089731680932703, 0.18994854547984866, 0.17815985443762686, 0.31057882913204643, 0.24099167086120002, -0.13768046756821523, 0.15300738799675412], [0.0455757510890132, 0.14907466842646563, -0.07391881153980248, -0.06867015266334296, -0.047201276276520085, -0.08566388120806853, 0.08049206357768526, 0.1062018339575023, -0.05676420248251931, 0.15459974037853547, 0.04199924382232008, 0.25133909906241825, 0.3678906529525161, -0.07061151927870166], [-0.07237027326634171, 0.032676883986491434, 0.13973922530729174, -0.07842553807299993, 0.32166244510611725, 0.07604164521119122, 0.33757409274740147, -0.04457184947863006, 0.0005750731050474951, -0.05350867663265883, 0.013274937849662646, 0.22757145997675995, -0.10895163395547544, 0.15720017152674623], [-0.09922159804923639, -0.019947584983279497, 0.28058405325388286, 0.31420730190349977, 0.2573708065034674, 0.1184580765303046, -0.0432619256509643, 0.1326075788106733, 0.31283594284875943, 0.09620351854251301, -0.10993387069221927, 0.18404123455645618, 0.10004526075023716, -0.09094503976367588], [0.1250829404624017, 0.36905626028101396, 0.006747303483330478, 0.0910337729603574, 0.021810047095226586, -0.028768047334508464, 0.020270477784768273, 0.02486195317016566, 0.0538562995211818, -0.1339336892659853, 0.14735772967919195, 0.31784568786496714, 0.36814910442508764, 0.32805639643630297], [0.02171581653249559, -0.12137438211586116, 0.020895934833733, 0.22198067806002808, -0.11933705155057284, 0.18309565298271732, 0.06424168291894701, 0.048399398968134756, -0.07480443500470783, 0.019428376465758585, 0.0962447731721925, 0.0022981244303377137, 0.1623714770566764, 0.3253256201365352], [-0.032642060788921734, 0.35262807989764566, 0.21435306962006856, 5.3415786648469685e-09, 4.7550325622525475e-05, -0.07334784661748597, -0.0951076169612357, 0.3495630786868184, 0.04114617810717084, -0.04779723950712536, 3.9085684288234043e-05, 0.2896953402056176, 0.3388596681794044, -0.10722817879488299], [-0.05797012034155193, -0.12719136333353911, 0.05539786520056089, -0.03347727422826651, 0.2321375965756679, -0.012470553208359146, -0.07354858667482408, 0.1582827080791064, 0.03297197425384518, 0.1137850966620939, 0.061655202041447685, 0.28225009594579326, 0.057761815926556444, 0.15629294631439677]], "linear1.bias": [-0.04669512851614536, 0.35988205853924904, 0.2328414402321238, 0.3212244094087173, 0.33158251922621246, -0.01473814529713906, 0.39129000102599504, 0.47111081475921607, -0.07962890978077328, 0.11714279760610706, 0.34873497837970563, 0.31822310620617184, -0.10132575891977112, 0.4193065252002262, 0.236702170408456, 0.4437513240905695, 0.13691433394454147, -0.03280595431408768, 0.40336591076478423, -0.1148654887836666, 0.2152269016887505, 0.23172555838541872, -0.06989283714723613, 0.12466333409355272, 0.3566360222996243, 0.19234934850568636, 0.060578730564593904, 0.19655598243891978, -0.02511222559611526, 0.3176944214535371, 0.24358976236213264, 0.4093366182190384, 0.2113634362343253, 0.07419995401085895, 0.2951859495748936, 0.27091998678704404, 0.1782660284765928, 0.3491238787406084, 0.20756494483859225, 0.03589410298302042, 0.41509598709939044, 0.04657172783491345, 0.051714992767006175, -0.021688232503874468, 0.1302490812540261, -0.10992127399178588, -0.07329964548291042, 0.09439305858163474, -0.07934724575984817, 0.3575718834494188, 0.47852111664596153, 0.04626454224355586, 0.317482992272251, 0.277316997583858, 0.33630430758948393, 0.4380137886046426, 0.4264049734850298, -0.10047404553638789, 0.23180758994668785, 0.09082651870419217, 0.16461789672403943, 0.1628392472475062, 0.2628186574414308, 0.49934423802914735, -0.13371171171216195, 0.3288261111829673, 0.18521354841222437, 0.4504759965586889, -0.08956721915109031, 0.030888777796810065, 0.4152772498020675, 0.033256942829882806, 0.17866091918496116, 0.2111501203896745, -0.11091976854149223, 0.4571740122860374, -0.09310259808467376, -0.1310340827469864, -0.11152505206798799, 0.2970383415727913, -0.05796806931728851, 0.12834145885782727, 0.27599072050325907, 0.45616398544039344, 0.10609091350308433, -0.10596641180714295, 0.1372994854065959, -0.07513022665445997, 0.1030978253025642, 0.12339465413343088, -0.08781463266464794, -0.10716088201500237, 0.15567652706758528, 0.4050437728328206, 0.327077172145878, -0.061551883881851, -0.15339593045990738, 0.38394906650386645, 0.2185508907558118, 0.41964812508101323, 0.2178003149368285, 0.1710446734215491, 0.3750461491441792, 0.2733219735384526, 0.18125713415396516, 0.24299847469258418, 0.1027633463754221, 0.003212382485764418, -0.03216614805638118, 0.09888445966702675, -0.06215001256435853, -0.2569043642237237, -0.03478150073938447, 0.15176490963390968, -0.2129098473786478, -0.0038541117947566393, 0.4406485464729182, 0.3380131116203646, -0.11534503028435275, 0.45765505313298643, 0.44518656949867125, 0.40120703765458565, 0.30942385837091596, 0.14302802614359647, 0.20629025643446758, 0.36028220291141344, -0.010845025430610127, 0.09303247991297661], "linear2.weight": [[6.085560057161747e-09, -0.013895739604253264, -0.0818332594637692, -0.02741819737947023, -0.03930102839431952, -0.0025846517514205767, -0.06932570481837436, -0.05348140764945183, 1.56320474250806e-05, -9.623027951877467e-05, 0.040540344299781636, -0.009925696933147097, 0.006676585137263017, -0.019530923910222677, -0.0009017959231552279, -0.030246172502750263, 0.033577273749056585, -0.00044446907662103327, -0.08975263101908028, 0.04485074740307768, -0.002492549102021293, 0.00575938313802636, -0.0009804977674875517, 1.5484582474173324e-06, -0.05280277659565941, -0.0165257622516917, -0.00757073984912493, -9.89087891339117e-05, -0.002273620194156511, -0.06514637267312547, -0.0850510264522425, -0.017893944924950656, -0.0003001515049542833, 0.05472141914469015, -0.018128157079542535, 0.0504900788262822, -0.0050240486475638365, -0.009464309256264191, -0.09675661647655368, -0.0003722947939881887, -0.01865097041479539, 0.001033969359665575, 0.03602434457370599, 2.497524534112864e-05, 0.0032830374240037648, -0.00404467768595664, -0.02209090451047991, 0.014608530324339952, 0.07515490689712476, -0.014379889551789992, 0.010020551460481817, 0.0032214416317985013, 0.028236394431654134, 0.022774380557192903, -0.06699309733668032, 0.00021665120734410784, -0.08271185954000775, -2.279928861158635e-08, -0.014734575407127339, -0.005980134332321162, 0.007042537433399894, -0.023195497326889258, -0.07586060111045168, -0.03705050854529219, -3.074392032357537e-05, -0.05544421506204313, 0.01128621002106562, 0.02732443679088013, -5.791852776559236e-07, -0.006280699529019997, -0.02494582125539562, -7.179850512683136e-06, -0.046948429558059245, -0.005628346601413452, 6.399983629547549e-05, -0.025737692199983193, -0.001389110866175187, 0.005692676885091282, -8.809190937931367e-05, 0.03406157487145128, -0.0003927143707727195, 0.013222144609829197, 0.025117626481115228, 0.00960957208941476, 0.024062727113100306, 0.002869013397224126, -0.002664113568289154, -0.005507688517600097, -0.00013901997652679459, -0.053820100164240714, 0.0005015433674406132, -0.0007749691099313308, -0.07545460510236449, 0.061903956303528136, -0.07035998942954765, 0.018507754043914592, -0.005027634383378305, -0.011951689184937766, 0.047752329009923045, -0.007798385258141224, 0.03618952380647632, 0.04279278078841555, -0.04882704580066829, 0.04052405785940038, -0.08295679180228813, 0.03195701670468479, 0.05544905663028477, 0.026956250249558614, -0.00019246072008181965, -5.700846628586561e-05, 0.00015387458630158955, 0.0003408249272638685, 0.06741048660244392, 0.0435160150925465, 0.0002805397614167391, 0.0005887097486293563, -0.0392142552283733, 0.010322489002706551, -0.007086783342633876, 0.03297885875873415, 0.019643770756495385, -0.02974398603341613, -0.021008192224970076, -0.017126855506872925, -0.03374719377636562, -0.07050926410352223, -0.002413557299289168, -0.003799267319070214], [0.09234374175374617, 0.1702782851004701, 0.2513531932361655, 0.13797088252282114, 0.16377449265291, 0.06686556107977354, 0.14743263420428607, 0.20554758088714786, 0.003863905038250963, 0.2275759410674143, 0.28235469757063725, 0.09006660741651847, 0.16847255155368668, 0.25529759523012524, 0.18693418190217703, 0.13867008308381715, 0.1360492956758296, 0.17029428362955384, 0.18303285514776654, 0.050431258812234384, 0.23704011194437555, 0.13533623641683543, 0.12034844771107135, 0.2193079056771086, 0.15974276568751614, 0.16195237078637525, 0.10961832332839731, 0.24410658802610674, 0.011033986997403938, 0.09905977061773945, 0.15706192851323147, 0.20790272526076273, 0.09007423251259478, 0.13393403410998836, 0.2403726617462638, 0.17806608881634625, 0.10196409857268408, 0.14028264735137014, 0.1164515079759848, 0.04990801221484548, 0.17770727273794765, 0.20277793304934513, 0.22831679133257277, 0.07645642272934014, 0.12280039321586977, 1.2122830146738443e-07, 0.11132879620680727, 0.08336881619337456, 0.06177707416183551, 0.22421422666923288, 0.17994268310513623, 0.14911472980709686, 0.2472553534068668, 0.2369834236455769, 0.1917446431402184, 0.14928236137414316, 0.1559209530627385, 0.0681706196205908, 0.12559579205324214, 0.1107001421314317, 0.2470484622110051, 0.1635289278635536, 0.18096766031928346, 0.173479685875012, 8.829348282954633e-05, 0.2371805007901355, 0.11613831869496316, 0.12249827900028944, 0.10413426357443538, 0.08735279987272151, 0.16657644430556548, 0.14419901059661877, 0.14000826085533843, 0.16244732308245613, -9.34023937731625e-07, 0.14118649204419176, 7.800796128355784e-07, 0.08739902380258979, 0.15368687733453465, 0.15825219867544357, 0.03524694016935722, 0.1836786470846911, 0.18529051179168804, 0.15751094925835993, 0.24529641040955255, 0.06678663598218261, 0.08600026491974914, 0.022920677611360137, 0.16834697353056438, 0.19184917029867787, 0.013117562357584068, 0.10959159775891672, 0.10685674815583349, 0.161432844333403, 0.1650418715810734, 0.21700998685643302, 0.04891139859541573, 0.19575165133944716, 0.23654431550485291, 0.24045078364338332, 0.20696931467126195, 0.14547178753052303, 0.19438379238606465, 0.12202824864189456, 0.22274288047402882, 0.23582357737382947, 0.07547310430683185, 0.20135534917874273, 0.14976157196980114, 0.1955807407559129, 0.007879026300331353, 2.0032065434172025e-05, 0.05127149710854736, 0.13537177256623023, 0.0034111896817818677, 0.04536137038838588, 0.22451268127133908, 0.16012258795169168, 0.11435380056436688, 0.12886610970224843, 0.19990521157313562, 0.2360815386557986, 0.14845975837440964, 0.21321603339173703, 0.21766852607188972, 0.1418519249952084, 0.11295951069428253, 0.1923479110681881], [0.0956752076192745, 0.08704492750074157, 0.02702956878052361, 0.12892068077493135, 0.027045167572489513, 0.04603335643252331, 0.14295855396014187, 0.175307899659918, -0.14643115895648096, 0.055946524618377666, 0.20948187528561232, 0.13413895490205513, -0.0827086425337796, 0.0828587264744774, 0.07984434894173292, 0.15440051116506387, 0.1760279489575224, 0.020336855571171923, 0.10131792243541363, -0.022098669282162576, 0.11076966962580768, 0.118936029469851, 0.16551983955456648, 0.11117950092984445, 0.12901642529197907, 0.18569149088073278, 0.030623081249782927, 0.14065012911383082, 0.1602133903467529, 0.1309236311260849, 0.10386717053379078, 0.09505176477790829, 0.08269147148270407, 0.20155240300382946, 0.13470117499855314, 0.029405400656215205, 0.10168010538183613, 0.07614248817947326, 0.1682775934573692, 0.10629367728241153, 0.1745442921292412, 0.02626899664471563, 0.033698758615202336, 0.21904180084528307, 0.15247752681862262, -1.9067653635719776e-06, 0.02894138970463744, 0.1191144225832109, 0.09219573156002366, 0.08971963762874278, 0.20097173474379337, 0.03765529461532522, 0.17670351719164026, 0.16383772499252747, 0.16189390570333995, 0.13486271677658465, 0.06314915997046143, -0.044576213469232476, 0.09756151332928842, 0.1702478935079202, 0.07975479887633256, 0.11462670230666645, 0.20887168336485404, 0.20689512880849129, 0.0017520133196839195, 0.23445634492680784, 0.11919522358754865, 0.1652435528062288, -0.025337107717745964, 0.15491272756116387, 0.19508247957203373, 0.17074816407527954, 0.08377957043772538, 0.09074011021557105, -0.007431271786338626, 0.0766593169662771, 9.452515490436041e-05, -0.06675801409059846, -0.0005126490151765236, 0.15743216303880037, 0.011433410848827501, 0.08657801713202799, 0.16831486759625194, 0.120640224452756, 0.21468981813587104, 0.11996374458845631, 0.10339204743599957, -0.14978694345064206, -0.012552918984239752, 0.14341254008099574, 0.05195166169426205, 0.06889045158179953, 0.08669119223455504, 0.1123919282423234, 0.12691192668884668, 0.12465838201171668, 0.017255475328576065, 0.07873101901823472, 0.11651876029571157, 0.12730205687286664, 0.11174933810658093, 0.045222182923337254, 0.12740736414255532, 0.1067575310557628, 0.002349424282929722, 0.14744554453464775, -0.0068979640883453435, 0.10882144254924707, 0.055757531692125495, 0.1956544375366377, 0.13023878737491973, 0.08902100289923048, 0.10254938884738722, 0.10992998424124363, 0.03673851911876278, 0.1902976915120916, 0.18551108026837895, 0.11496342899794205, 0.04203482113812079, 0.19678429734078193, 0.19101214346944664, 0.08933626775165555, 0.1183963093172448, 0.21059564127613295, 0.04158794313395489, 0.12860393834018022, 0.09779246405760444, 0.15180174378653022], [0.1385556417657919, 0.24894087731876754, 0.13133435521326883, 0.1783643869378918, 0.2356082818105482, 0.10281763671401152, 0.252631156949824, 0.21338841158122393, 0.048590984825617946, 0.10099678884177214, 0.22141420080909244, 0.18048801130575165, 0.13336999468389152, 0.13297937633885956, 0.14621935619442128, 0.1901753252729763, 0.08965125227318413, 0.04717225292946785, 0.14211945426226388, 0.14473302268399607, 0.12021892888254815, 0.18950152949806326, 0.11471899497453054, 0.16513626223813788, 0.17488472896430493, 0.17221432308416912, 0.15813039506063825, 0.2064905433391674, 0.14021831538091498, 0.14284647391424438, 0.08968745549528623, 0.19970848431613616, 0.11957992486115436, 0.08840960823401434, 0.11159429505369327, 0.14874132565246237, 0.07368813251679468, 0.1456595463076888, 0.22086189743096243, 0.11462068027517607, 0.0821283365159684, 0.1525906784298018, 0.09518327099165164, 0.1818535992138968, 0.11550131233847824, 0.000353901293988599, 0.03304789747417302, 0.13305173784711255, 0.10476175752757029, 0.16909773968022349, 0.25785015878638806, 0.07636868568487343, 0.08638459204811699, 0.11031296226265665, 0.14393721342364768, 0.23227654232837563, 0.17406164712899996, 0.12179150124545321, 0.11462172377183981, 0.15882669964650295, 0.22048467551380524, 0.1839953624053217, 0.23004692375049068, 0.17109048965700016, 0.007358695007968282, 0.07333178063735508, 0.157243066291386, 0.15711637621856744, 0.13314184287794587, 0.06569272488372166, 0.08839656034735416, 0.09266975754891017, 0.1403982749989532, 0.07081628124713268, 0.00016768642210625265, 0.24469237551433148, 6.277543854961902e-07, 0.07816795073318773, 0.060823291207679396, 0.1861530282781864, 0.10148513390481952, 0.20633389271069968, 0.13994744870803585, 0.15422282895087047, 0.14738170501139622, 0.10751498881803905, 0.04497113610092561, 0.009004841533063244, 0.0523627614403938, 0.13517560598125747, 0.18197840958282235, 0.00744976234357351, 0.11597445963415533, 0.05747491364851919, 0.13637406275644795, 0.18737155980649978, 0.046367514131918273, 0.0960406146925044, 0.11190466090661681, 0.2014701135263109, 0.16453125589879777, 0.15440355138025696, 0.15092598393501394, 0.06986802464577063, 0.1394502264084717, 0.226441439277402, 0.016269430743198178, 0.10435521781854232, 0.09914337113869465, 0.13854029510372934, 0.044501866326292924, -0.062114589864523784, 0.13850159441772872, 0.0982636220258861, 0.010199488612008988, 0.1362038416192068, 0.25911194453682185, 0.09961899546963221, 0.11815309573417523, 0.07995308643566156, 0.16004143086507197, 0.09749150344675614, 0.09830332945513277, 0.19513488211548843, 0.1173644752250104, 0.16071387426040148, 0.15081376803856814, 0.13197659175430324], [0.13521395447753684, 0.15988144929841958, 0.11477213102457307, 0.004653813650011109, 0.057697062098807005, 0.042880032385373294, 0.18359649170836653, 0.07880323038351807, -0.07813857440341462, 0.03489455822634882, 0.12089879399875844, 0.16906761290506203, 0.07492722870914706, 0.08360850978810333, 0.0829880129113079, 0.1703493808494963, 0.06695615796469634, 0.07276845345392405, 0.1617340560019603, 0.060161137963947814, 0.04953777139420631, 0.11184026674049304, 0.1365364646927171, 0.10838680682258346, 0.14818191623155935, 0.03830596747505568, 0.014201703361113894, -0.0408821778867063, -0.014901085887314442, 0.025876847046046928, 0.21688987666731518, 0.16618010114172174, 0.09413324128373735, 0.0847764492946969, 0.1079800521883176, 0.11595252333503589, -0.035244593837188476, 0.057698701144024506, 0.1704607173998626, 0.09578357229119812, 0.17191565369906053, -0.022879834414547412, 0.07193781042834425, -0.010326277105179213, 0.04848857127664727, -0.00020407882003876303, 0.1289086110828167, 0.14205222519360156, 0.013640675564608781, 0.04463044643090772, 0.07864841069957451, 0.19369470058181618, 0.016091096040441132, 0.17156180609999092, 0.07324437121790006, 0.0834750688054688, 0.09170594222549094, -0.06248201889550351, 0.1893034140833902, 0.025362334771834975, 0.10028999439287625, 0.14697466654932292, 0.11079400320290006, 0.14579192615569625, -1.4232242341742872e-05, 0.14229456851901373, 0.08798627602866826, 0.17930392268775774, -0.051581471725285724, 0.11201887838278299, 0.12126489086576173, -0.027104121759296503, 0.00738620299698648, 0.060254715071204216, -9.091630359161105e-07, 0.11964982124996482, -1.2881480062101833e-06, 0.05482790318140754, 0.006920670590885677, 0.19290946100038558, 0.101950057325706, 0.18260969530250223, 0.17474686051105245, 0.15279328508816842, 0.03723781163628383, 0.12961293144970304, 0.17818537480080635, -0.06837161601415702, 0.10118840138206461, 0.07191033319320449, -0.13979994167867196, 0.06019186242065145, 0.20696257429658163, 0.11696858282001482, 0.010326120267072797, 0.051935244794670855, 0.023979645786050108, 0.16843092483475677, 0.13298221152971443, 0.059545683543239906, 0.04383140190819269, 0.15648305737803297, 0.14485633911409215, 0.16334929245805174, 0.07976390168541782, 0.07014277879110324, 0.057328201483822935, 0.20373604926943734, 0.10724216583547995, 0.10415228673589527, -0.026940974909295597, 0.01722587240501176, 0.010252188955447921, 0.1702135600396603, 0.018335667022099298, -0.0053858749149906845, 0.039759394014429, 0.10818878159910932, -0.002266614260534381, 0.08439996477999702, 0.15944144151302644, 0.11928576143247119, 0.10221285538472984, 0.11026403985169979, 0.14110077334291074, 0.1760249806300375, 0.0977315306997939, 0.0331033155551851], [0.026599068362706285, 0.12226894910546908, 0.052711070667392196, 0.1191469688726671, -0.03173337628711026, 0.024721119376148678, 0.03621148177492503, -0.013900256615129478, 0.07762699015678615, 0.0006754870993133796, 0.033288842646618334, 0.03792411521147051, 0.004100135795861692, 0.028721380665171346, 0.01162633331046041, 0.12168714154811815, 0.029223894911805545, 0.0011447113036161887, 0.10228759097271185, 0.06482629984867287, 0.10996932839671371, -0.027880601300235314, 0.13297117147753304, 0.11347323483141128, 0.1468070532397178, -0.0006449376793066731, 0.11584868195490139, 0.10543841385934903, 0.0718493346304051, 0.15251245041002165, 0.03821251315136398, 0.15163581172401322, 0.1187067115704501, 0.011105960363100265, 0.05286719652863874, 0.11085004601658671, 0.06374689128212359, -0.027847511921572362, 0.041415492916880986, 0.10971048128079001, -0.031128411154443304, 0.03333858318854748, -0.05611293198131328, 0.05135848959827451, 0.008095560831716538, -0.001240895440971415, 0.02870075354341137, 0.030372720151963406, 0.0823419571382546, 0.0763258486771099, 0.1653516341519567, 0.07990440082951565, 0.14306799005811385, 0.05172664751826603, 0.1353962184342311, 0.11872552526166322, 0.020507876665146436, -0.06703751468621774, 0.11344203481198764, -0.04919755080457681, 0.0609061089461347, 0.05304490024689789, 0.03473632117525083, 0.012251778979012954, -0.0012402625152414149, 0.04671831561619246, 0.15702915848970164, 0.06907202547341428, 0.056713559454270306, 0.12311522648288664, 0.033869642421409094, 0.03752429648988929, 0.007006752509865758, -0.05978299542823103, -0.0039472199021560435, 0.0024227177877826143, 0.00042547291004028833, -0.06065884510244896, -0.02513820327964039, 0.027117440808497734, 0.04459878794975418, 0.14855606379925787, -0.07645797986028718, 0.15455787324565823, 0.11461072023717706, 0.07168353402887874, 0.050717129095904125, 0.07872115339011752, 0.06919743207421297, 0.10977183376834504, 0.043576644913860006, -0.02659203229021334, 0.08482613130042056, 0.07607896032326282, 0.01130314546539281, 0.05003440059976702, 0.05891067882354246, -0.024554033124553763, 6.319468489939759e-05, 0.0614883575511055, -0.013828674769640987, 0.05138706788188231, 0.07595190931062505, 0.0049209318271822705, 0.09877904405963095, 0.1256051968050511, 0.015716074573582994, 0.04870097256733415, 0.16100374619482744, 0.035002322684069075, 0.05104116690029008, 0.08101842673981435, 0.020442937097282256, 0.10278849302607715, 0.047715095434298846, 0.04647407390519333, 0.06909112194480013, 0.06098411515829045, 0.095275242621994, 0.0507887378174893, 0.1607711405099316, 0.0694461005402801, 0.049053610254222245, 0.06867890414058359, 0.03543050963657518, -0.04511642351471353, 0.018961380669007006, 0.009183325288652459], [-0.07317769954159777, 0.14419775965567558, 0.10941368115348614, 0.08637515605731051, 0.12158474641908966, 0.13601431315948112, 0.1315235588611566, 0.18811567751801384, 0.17356929468115104, 0.09172027832220307, 0.10516716198082585, 0.11252812091545132, 0.014150379587015012, 0.19686733434554063, 0.15643831787319543, 0.14967728857159038, 0.15143251144597628, 0.08887717529302529, 0.16912412462921386, 0.07385328621254778, 0.21919715548488383, 0.23967414352912275, 0.006440920564178784, 0.056669006054245734, 0.18099290472034446, 0.12272496967592869, 0.17602760332906484, 0.17666291530918965, 0.07638590097330684, 0.06823992036239883, 0.18226154923221108, 0.10438864557263249, 0.15053850623436732, 0.09466545435007946, 0.18760893993390884, 0.11725422863028363, 0.14276590364242703, 0.2239244171820375, 0.023544333479376723, 0.09572316780943445, 0.0723974198568854, 0.09328768529451477, 0.07370057031232927, 0.057693193424014244, 0.03130392642507514, -2.074511809157572e-05, 0.14787106908719097, 0.22520577377579015, 0.15398905234240257, 0.14201399160400874, 0.24816867037317394, 0.14190762134868357, 0.11459327164036769, 0.1705743094446796, 0.1607065923104625, 0.13544190867159522, 0.06638417214769617, 0.05324657127912042, 0.20230457912053687, 0.06648920446127045, 0.16660966288237194, 0.09578907275647616, 0.06053395347661944, 0.11474259502398197, -0.0004252408250732384, 0.22250516094005804, 0.062266135146526215, 0.10683997588924884, 0.15334253128369693, -0.013593472029802784, 0.20691707310324375, 0.11584307773184105, 0.20083632525068587, 0.08600250386815936, -0.0002057914180572885, 0.09153666504119105, -0.002197053418012565, 0.036903091548200616, 0.09868707687520051, 0.2004911184565625, 0.14025360736064993, 0.06337096399613645, 0.2039821662752166, 0.1619686472851875, 0.22477305590292873, 0.06693039954755584, 0.04438603908376015, 0.1736797679218782, 0.13220508054453312, 0.1924023083958005, 0.12820960461953598, -0.03362361197320705, 0.13664749846682325, 0.12263117405377919, 0.17047482985480444, 0.15029645262368577, 0.06273100937289329, 0.1348337907990103, 0.15550021323796404, 0.06666853407900952, 0.16749947772878998, 0.1126634030612172, 0.11517628822405986, 0.13455457158933415, 0.17449207980442027, 0.22161586604727135, 0.06044783771224868, 0.1541437603387575, 0.17377843697035883, 0.17354482288295725, -0.07137919628958225, -0.007065276116008721, 0.13667351063907293, 0.007314496326282383, 0.0786696102211963, 0.19717484440872146, 0.07938248141372689, 0.21412598486247847, 0.026980525479990133, 0.08022937135492837, 0.17819468784403938, 0.1086989258225572, 0.22099470964701015, 0.16019886937089872, 0.14350139860548672, 0.05633658615610102, -0.010433636092948473, 0.02551623109219265], [0.14036189377547648, 0.13690704786144353, 0.2108471431027132, 0.22035202933613546, 0.04477976075693403, 0.12343063398346832, 0.13014948389640416, 0.0661871178808735, 0.05309426915568115, 0.19843314519462824, 0.08130766070720222, 0.11129647280827226, 0.1588366777806284, 0.20942026625153676, 0.19107109037385053, 0.21554405574373275, 0.06968668756651379, 0.1538126365425543, 0.22083703198980778, 0.11450630854193763, 0.18329251818095502, 0.1142872842905942, 0.15046087728616722, 0.09098746020213776, 0.14384703007305583, 0.19280929517443976, 0.09537788582290946, 0.09922258215405695, 0.03303188601162287, 0.13533495447817462, 0.15430149148403727, 0.0885692839275062, 0.10825715513428981, 0.11770981997091731, 0.20567949466485896, 0.1383055573820736, 0.12031300822497087, 0.0991176075701521, 0.11433330363581617, 0.11163552562206452, 0.17380872794797908, 0.09926693479189042, 0.17800214506101864, 0.13512900011929857, 0.03587123395117127, -0.004500959224324205, 0.11018372208062724, 0.17352557913227867, 0.1547546990014041, 0.17581023120725017, 0.1281712144194906, 0.08713054822731524, 0.13771328721078066, 0.23560179252992106, 0.19552252537662887, 0.07990045662175806, 0.18092832188653582, 0.145190195602939, 0.11155088967449292, 0.21911483672006313, 0.1437357681453119, 0.0911775677691059, 0.1309259691391965, 0.18243725780599515, -0.0013629602316193605, 0.12585666975244003, 0.05627221089636172, 0.1095382855319596, 0.007663832690597766, 0.13335497189538228, 0.10709041195963634, 0.19246687742310628, 0.07875865385930822, 0.07154171678053503, -0.005243174689001183, 0.24766399743785864, 0.0031325871259943352, -0.00784956472589239, 0.0644620247760644, 0.18486952922880487, 0.13856623862793366, 0.10956701830683943, 0.06550297111450802, 0.19601326067178867, 0.2257483621779066, 0.013428649941570335, 0.12621763309173284, 0.1335451107981485, 0.05316205668993346, 0.2045467569863527, 0.07927342556298178, 0.13452235865618759, 0.25827964705619316, 0.12184313448468179, 0.10316769567931668, 0.08753205240992626, 0.008039475687244621, 0.11229476104371344, 0.1842999972546019, 0.0889898953777431, 0.22652267171453516, 0.18402019135813094, 0.22036653277651858, 0.17185225342681962, 0.13757676436990707, 0.17568003439039856, 0.09845921162682231, 0.07321777931012918, 0.09356049652306427, 0.188789807517106, 0.04491868792299996, -0.002691488605068878, 0.1731754014445624, 0.09817838863945903, 0.0731690071023744, 0.07693851857285273, 0.2172417912143403, 0.11054449067792443, 0.09353620468316191, 0.0865883815527772, 0.18262294145294394, 0.2294238200142739, 0.11017687021527675, 0.14517996144585407, 0.18073115203203682, 0.20959528905273336, 0.08724739736438868, 0.06625142288857364], [0.1280683934523215, 0.10330207498180255, 0.1676422426469743, 0.2365515398483904, 0.09117824351125439, 0.12286235174537001, 0.15682613467164622, 0.1269775531134964, -0.0029653090820953346, 0.03438430631314233, 0.12082914621249083, 0.22980314626816525, 0.08790680379008751, 0.08296093008181116, 0.15181458517380025, 0.14493405302299575, 0.14825625835328546, 0.11522834243398952, 0.13138016357143312, 0.1303748628459054, 0.08801494912947334, 0.15229004581397718, 0.1428959078028408, 0.13672452683123085, 0.18346596096069737, 0.10601786164330405, 0.10877188309006482, 0.07852786361714416, 0.028608050580749063, 0.1551550632435016, 0.13626045088298316, 0.13900621095369384, 0.13228589338825056, 0.06465337144621171, 0.06140338808135452, 0.0665298898726174, 0.10993316035089809, 0.11575699790539036, 0.2071260170783295, -0.014384237783950765, 0.09650370741523849, 0.03985222179197555, 0.12433031088483584, 0.12473228154612497, 0.09083314438958405, 0.0015421301364743492, 0.041407280340183907, 0.08194231025082609, 0.10286730010017767, 0.09055154457446557, 0.0836345772624553, -0.04375840782506038, 0.19961325328644525, 0.18054585734208467, 0.2262049503626796, 0.11984723768087863, 0.1584338371192906, 0.11267981239376319, 0.04320791493007631, 0.12748856527730862, 0.08642871041412171, 0.049245297420572695, 0.16601030885270107, 0.20804892569404201, -0.00015824344682193185, 0.19121327591220594, 0.13704343155585308, 0.14340882546533726, 0.12068235167229352, 0.1796025557944661, 0.08447437734700307, -0.020823422185367556, 0.12916829904594998, -0.004877730716035912, 0.004653119435148507, 0.05727794818725126, -1.830247645356001e-05, -0.04162576346723013, -0.01111546087733382, 0.06989437097653173, 0.1194325610507814, 0.13274591090969334, 0.03312240739844714, 0.09579650092003685, 0.16901861242069574, 0.03843168469223115, 0.11494665743320984, 0.09670707236976676, 0.0496483668280343, 0.061968942505928146, 0.06483768243147889, 0.09939638442066928, 0.09662870718963949, 0.07937779862171891, 0.08569262991258268, 0.10431666258357077, 0.04591701131861043, 0.11525968649042435, 0.09390835936284325, 0.07819895018138955, 0.10647280566009389, 0.1804219675869474, 0.2084978151832149, 0.15446650462444647, 0.13966981072370668, 0.18416089231082342, 0.12348122128514398, 0.08112042724698351, -0.10698869341920994, 0.06780529101016528, 0.08723043214276323, 0.00016681076977595065, 0.1474683347528864, 0.13818929159008136, 0.03298904039363545, 0.01721495900975696, 0.19784846379723245, 0.12567151298374557, -0.036280905554221, 0.1254575101698613, 0.1750910577812119, 0.11588579414563187, 0.06884760830263913, 0.19841171155500922, 0.07526959254117108, 0.08494534267137487, 0.047373978834788014, 0.20438839110129656], [0.1516160348480437, 0.19044191787427883, 0.1337326017817118, 0.14290110745653353, 0.15118231917230285, 0.12237184948271757, 0.24840173595984694, 0.2036708919394652, 0.08651313859925341, 0.1826197627596003, 0.2619166936572003, 0.23745204568585002, 0.00608622925669783, 0.14591497764433475, 0.11119253643633904, 0.15678203678748368, 0.16668004525601354, 0.17471399769771195, 0.10823960428202627, 0.09656295341390049, 0.15664798795785115, 0.09505642183347657, 0.11653750301669505, 0.12432454750535513, 0.16965421340525835, 0.13783750534173936, 0.054922325923179895, 0.12299204194711033, 0.035006352496336546, 0.1512966207222689, 0.10917718897769296, 0.1452637142074317, 0.18113602522270736, 0.20557844704255085, 0.07136488263487008, 0.180220232466988, 0.1816572734348818, 0.2164545778757479, 0.24148632144320029, 0.05968069003982211, 0.187476862612653, 0.12365650174321559, 0.14364510010597592, 0.14491867345351897, 0.05346166178671752, 0.0019534743002716554, 0.024661247907154023, 0.17237930968559068, 0.1112544330784569, 0.25594500270004755, 0.2598207406904054, 0.16662885837455163, 0.1877043652093358, 0.14179716819446866, 0.23834343258694396, 0.09185287448046137, 0.15369431596463523, 0.10590600664401816, 0.1342478589168888, 0.09897087089642617, 0.14562126770437983, 0.10248199784803577, 0.21285144147303878, 0.23288603207412933, 0.007693019221046865, 0.16853938346011935, 0.05667722928532935, 0.25029896175734767, 0.13851981571402722, 0.01916390539219921, 0.17025151746932715, 0.1535283907210188, 0.16925084467801055, 0.17385423703733643, 0.00036578057571265307, 0.15270483473613503, -0.00818325977150913, 0.03376372667793073, 0.18623515527211454, 0.1673811148978073, 0.1115880200205848, 0.20167094937541055, 0.16066455665099771, 0.23001642217385465, 0.20939665496668466, 0.04238383718173829, 0.10854513770889661, 0.08006618392146096, 0.05938637058943353, 0.2227162952912664, 0.1400831281684612, 0.04626312256061379, 0.24860248658745762, 0.12710437521259313, 0.1136071693719348, 0.13213685301524786, 0.09341859482381076, 0.1023887948701588, 0.11406370607929138, 0.22804514394727576, 0.07269252472448223, 0.17170522306335131, 0.0803702772942593, 0.1559087904802259, 0.13550257662474832, 0.15511893165719634, 0.1887174684111843, 0.22633648975212559, 0.05880138384107857, 0.20309106112466221, 0.11171548308360743, -0.07042654681209283, 0.1408121982538372, 0.12632557135568498, 0.0035221080889417515, 0.16250428318655302, 0.23357146493088285, 0.16348948915761718, 0.03615477680773818, 0.14634288379065635, 0.15247342821333112, 0.13894891984131083, 0.08508060448060323, 0.19758370008523343, 0.1701453635146579, 0.14760984006259154, 0.18668459495164486, 0.19169864318903448], [0.08000478279400865, 0.11386411893636522, 0.05964704415944569, 0.0976902337682271, 0.011932353122971143, 0.15160096227610942, 0.09262349751138793, 0.1819480893239271, -0.09326190732384301, 0.08260150335608914, 0.12327757229718656, 0.13277676295617222, 0.002337807299702015, 0.11985413969505111, 0.05499469457701409, 0.07567311266381244, 0.1783493084895828, 0.11054122514518186, 0.1648687326426937, -0.09834937555244838, 0.04803723958196937, 0.06323685980893387, 0.1819171853215495, 0.11666019541015363, 0.19673851537106418, 0.04260672861507239, 0.11239175121400566, 0.05589462623483883, 0.1813516261330922, 0.055747940075497535, 0.10749651384833661, 0.12596706653003684, 0.16646506659556484, 0.061524540419586465, 0.048692862406238394, 0.09050141530564819, 0.08756897558380064, 0.13993079809465886, 0.044233630016697716, 0.0601638338926518, 0.08356582441949513, 0.1506133761377636, 0.16046707960028853, 0.04994807766458708, 0.12485867534462806, -0.0007217008862330669, -0.08440533150501411, 0.06813295963157372, -0.006649225609211764, 0.10862280583848058, 0.0796123154943139, 0.15083479199632788, 0.12434384247134071, 0.15494354307120767, 0.07663941385221194, 0.13498997347495006, 0.0294640528746118, -0.0906033951361416, 0.08053654488507186, 0.21513193861036906, 0.18115521940838913, 0.12627251825915248, 0.15294458970974859, 0.19207551010806742, -8.060407310435177e-05, 0.18072325430140462, 0.09491988824306327, 0.03985311310731988, 0.07802502679577566, 0.05914731418521457, 0.14201692730983645, 0.16038259489205497, 0.08163901976018474, 0.08608328652435986, -2.4562087332972903e-08, 0.07533997057993512, -0.001271766619874937, 0.1384300150235234, 0.1739947398103974, 0.12491048149276311, 0.01844771090427208, -0.0460278354292277, 0.05031746953674041, 0.05767303596633284, 0.1350235302339363, 0.0655356302299205, 0.12220604280073678, 0.0010420324819318384, 0.14661010481407258, 0.1205632916883927, 0.09835199850355748, 0.08832834864544814, 0.08017023745294469, 0.133376696889614, 0.13105573929826186, 0.06899935611643589, 0.07721242169697796, 0.14461699813384665, 0.09060870032478406, 0.12128667587380561, -0.0001659049302926096, 0.035501481192545, 0.14877463993455384, 0.15870497503174033, -0.023026547547070727, 0.010244029813239979, -0.02680613429487493, 0.198890846831814, 0.15177319770065162, 0.0792802356972657, -0.013935814778631293, -0.06460919161524759, 0.038006626215493514, 0.051226887180680115, 0.09523039221093639, 0.05657702624180595, 0.10190709161270742, 0.09673729091667725, 0.022308549519210394, 0.14062169866356927, 0.05556789106967743, 0.11853524084378805, 0.12980139638891916, 0.0021264821576291062, 0.17038238230292863, 0.014298643205471652, 0.027173099505823785, 0.017239122165524482], [0.08081693902272524, 0.25136918158939264, 0.073969105415642, 0.15462371755753232, 0.10088412630104657, 0.12048797975443402, 0.11192569145214713, 0.14038076458529058, 0.11058781478219676, 0.07804804420488493, 0.15122596800482624, 0.1185510861198645, 0.0866237163429826, 0.17085537060655295, 0.12890396886043673, 0.07223054874051105, 0.1288253285371357, 0.05610868211080309, 0.08964053684673608, 0.019524043067408767, 0.22774588829388143, 0.1312673286334773, 0.07140965064468312, 0.16207486990940423, 0.08765161623986219, 0.16288809970621482, 0.19009824061447514, 0.16796547661823566, 0.14662130922195535, 0.16768911315204987, 0.09267938013246836, 0.13139706985843777, 0.15102679498577248, 0.23355610687973416, 0.13816856502969543, 0.2115763840568998, 0.11891036979091704, 0.1862572326542601, 0.11992508413980155, 0.09173469780355742, 0.20892236660017677, 0.0753758875932507, 0.12685280466018886, 0.0640619208167245, 0.11324939078582759, -0.005596993181983987, 0.13297532335725984, 0.13074792129240748, 0.05007579425548338, 0.15397220803847986, 0.10929207457993054, 0.09236450718092297, 0.14908371946219712, 0.2266152162285904, 0.09717064624643404, 0.12415437392843148, 0.091883877567057, 0.10372754231006068, 0.10744634040338213, 0.17500388423999547, 0.09541681407070515, 0.037641720447734034, 0.14962894474822203, 0.25378788226517085, 0.002116380272653833, 0.21665719736828493, 0.2098525930715396, 0.2229449268995549, 0.11244113676520312, 0.12066055463839569, 0.16067334796673977, 0.09750836986572717, 0.09243217994864514, 0.26262872928828607, -1.2841590294056287e-05, 0.25745594968097096, -0.002156620155364039, 0.07483861290349485, 0.10317334523875907, 0.21145067326365083, 0.13203125837808363, 0.04938623702433417, 0.08142514960992826, 0.16406375870347334, 0.12029087428893133, 0.13172106400532585, 0.1663233227054215, 0.08849977993734473, 0.1291378594959424, 0.21482033041188706, 0.06440788352507609, 0.06302696944710595, 0.07744037738227615, 0.21700411625375196, 0.16478178807524632, 0.009147824184540933, 0.08873450190727371, 0.03962418623791701, 0.08990291548690249, 0.1861761583790974, 0.21835950180832803, 0.08880855619547923, 0.18600521511216056, 0.16097413852303832, 0.09031209469998511, 0.09323664859002367, 0.19516090558659768, 0.129065334109519, 0.0548273503035541, 0.06598540502067875, 0.1139123982920409, -0.00025580125023609194, 0.162074782625782, 0.09146171732770016, 0.10031991568974553, 0.18379817551353528, 0.13044806847230675, 0.15806714725408857, 0.021893846591759643, 0.08693901613948893, 0.18791219946712862, 0.20626009491676178, 0.17615337398629946, 0.1320332870847178, 0.2124201195524296, 0.21188074868822118, 0.06497906388757452, 0.13059092081324664], [0.17183350014519472, 0.11762355641787678, 0.21228533057187016, 0.07462197231253703, 0.16562473593721858, 0.2131113472529428, 0.23178859993597875, 0.2118137996994317, 0.034626328091216595, 0.22273731340517067, 0.07637110832721057, 0.1960389387041112, 0.02155971592959782, 0.15243226935329737, 0.21407678975131242, 0.16352211404704717, 0.05032621933342828, 0.09703607458028816, 0.22140489594500584, 0.02414649110207657, 0.2177857783870114, 0.18479405672166838, 0.04567747226421352, 0.03383912198391744, 0.14098574329526922, 0.11102231274018598, 0.06974222306099617, 0.06007422299454082, 0.18136423984762823, 0.17702661540118547, 0.17184422335243738, 0.19546928138021982, 0.07198755422183106, 0.13025796020265054, 0.041491406895496484, 0.13315407119590822, 0.15519982827430256, 0.1153314726233331, 0.17976377786344436, 0.19400975651480093, 0.17833060816866356, 0.06826242907149038, 0.19371399033820533, -0.015138122292006706, 0.10820803141121733, -0.006434102717462732, 0.0812717610267568, 0.17897842517259074, 0.02705064107503819, 0.12171424966510837, 0.1548174662914986, 0.12346279299748165, 0.14985395738399926, 0.15680683119255184, 0.05464387954126341, 0.13694941802086827, 0.10389278792179425, 0.11081008482923557, 0.22214999688182893, 0.21247758647829587, 0.17589087542187726, 0.056286384419272, 0.09255949302507056, 0.24296817021239686, 0.005728469649793549, 0.07819729792488614, 0.18792366231895416, 0.12498892108605812, 0.04216744628851264, 0.05810525220806318, 0.10556969899073577, 0.11615697846257249, 0.14786706790021756, 0.1251858545774535, -1.541951697606168e-06, 0.13252650467234336, 0.006325657882607131, 0.11492271147345134, 0.02946677890521867, 0.22418917631821425, 0.11543727111811442, 0.14902089520372763, 0.08817690778845763, 0.22373975304797983, 0.260319843778917, 0.0800156035081702, 0.10316898775872523, 0.09326919782137946, 0.18834072766111787, 0.2320238857497458, 0.06626158166310499, 0.0664753565783901, 0.21960177716339827, 0.10315823904105786, 0.13965372169916954, 0.17571995513993224, 0.10715772407005142, 0.09363072081382248, 0.19404726695665808, 0.1720385744145901, 0.2081623638870625, 0.09981050128649117, 0.19393454349944692, 0.17811130001214867, 0.13504648324283944, 0.21204496197311626, 0.14721240108284653, 0.07239297860019678, 0.08800839112293773, 0.19412683242779238, -0.04227688320023092, -0.0015514610314813291, 0.1277104002480421, 0.1335029111017054, -0.004011842856604354, 0.14265503150676798, 0.24659720040109068, 0.12678204927032605, 0.04496736258510306, 0.1732021852868846, 0.17454444127034677, 0.2403039609106016, 0.16627228402390584, 0.22223208185287302, 0.2129921986234729, 0.054070429642711075, 0.1489472616870026, 0.1012309354895478], [0.10298389826495798, 0.17090927930884928, 0.1889829400097584, 0.1449098454653306, 0.08505945522409268, 0.05521814106141222, 0.17298262180319143, 0.1139395544559184, 0.1809234562788036, 0.10656206704631187, 0.19026263897951112, 0.17137486141158498, 0.029815556233547282, 0.05544782226759823, 0.11039908732062702, 0.08655799301731833, 0.21264780052401286, 0.07806627404206938, 0.1671259939050088, 0.09282127201485685, 0.12505088711411153, 0.07298319132119398, 0.19654938043109227, 0.09534400338348213, 0.06335477613438546, 0.07362913203533951, 0.029930515784085895, 0.07365886624827149, -0.03634158309810257, 0.0660604994205321, 0.06208740593423498, 0.10419740831469852, 0.10710756072068936, 0.2201751148628966, 0.09353611291840905, 0.09331465643739531, 0.08483211066111322, 0.10970710202311072, 0.049691718752225986, -0.026431845722531943, 0.07553599428391408, 0.11948022249031262, 0.10404383309312858, 0.08702004464008596, 0.08302026068830315, -5.328123049856979e-07, 0.08977800691084012, -0.018141340040835282, 0.002354243882087143, 0.15424440372076095, 0.12680841945492055, 0.10141156336983145, 0.11565584748218792, 0.10668286752935989, 0.22494416005575535, 0.21661077603436457, 0.20833355531873385, 0.07670520616898142, 0.09975465796959139, 0.16228816618477998, 0.11827850836364463, 0.035884353474098456, 0.2521668175159267, 0.12195202772798208, -1.4621708156926246e-05, 0.14222219246170584, 0.14509399621617683, 0.15890595395026233, 0.06520603631157437, 0.018043305103418995, 0.14397477247717796, 0.06455499725823226, 0.13963726198385243, 0.035986613404880324, 3.64238331199253e-07, 0.08201923980978701, 0.003200293544674532, 0.11423479396141302, 0.16275261411763373, 0.06394393482240415, 0.09860889595531108, 0.08171373305183349, 0.1447906300973366, 0.2014072228287327, 0.15815822067504656, 0.05697149728689607, 0.20644053897995296, 0.03695818308061392, 0.015773746611977134, 0.1955905124681632, 0.10457723861182401, 0.1714647083097158, 0.13921422668437097, 0.07888102477331213, 0.06992553658795113, 0.136338556253941, 0.1377044798495593, 0.11053252073946444, 0.12334521875261725, 0.17853255502546653, 0.21273439736798683, 0.1728911306588545, 0.25961762203538313, 0.21781761033619532, 0.11930752942058014, 0.19860857800474074, 0.15162199912666272, 0.0891703418028326, -0.006810463519594925, 0.1008125729886549, 0.09409010134361692, -3.36324900949988e-05, 0.05251990283985982, 0.13645798475846546, 0.13072770716236864, 0.035640272088171714, 0.13951435403703583, 0.1626294015954344, 0.07470605183655729, 0.06549068671655622, 0.19907701880834724, 0.1599526347609394, 0.10132687803928128, 0.1611974402714759, 0.17158734510773366, 0.07808801603330656, 0.16530740472634692, 0.026505420032347765], [0.11798988184730579, -0.002439048180194369, 0.03647214528514046, 0.06875852950364349, -0.008067131357170165, 0.03934009740103851, 0.040852347357480764, 0.07842367560239745, -0.029386119972780258, 0.017885348249499982, 0.02284783447690304, 0.16318002162607395, 0.12130991819753498, 0.1231140001319622, 0.14425639840584636, 0.045529148412539244, -0.05619912818171319, -0.055161550867684796, 0.15536843722490223, 0.01925096577299808, 0.01257960736568855, 0.027947749772604644, 0.09099706545320818, 0.06980336090874857, -0.0250956661010383, 0.02960154803648055, 0.1143622097353505, -0.08098633959239591, 0.01628036225595385, 0.03135338847749784, 0.05654735435047194, 0.05585041934308547, 0.03836392059354095, -0.03587390202340312, -0.013001042886757222, 0.09158164704671004, 0.1356587994345508, 0.09795946727075186, 0.054112735207055014, 0.0974644951563238, 0.03234629720346578, -0.04677860081137182, 0.10791431109054572, -0.08829021654266206, 0.017393755150101553, 5.506537096323795e-06, -0.006352034790042802, 0.033043688985583526, 0.13042659999233397, 0.053903274618563715, 0.12493641273640632, -0.059257908896641565, 0.08894340906393731, 0.04402787261085307, 0.10153462013886155, 0.09833870317564715, 0.07773272643445005, 0.009619083966981091, -0.03061691891507343, -0.022892740187061084, -0.027598999432273334, 0.07121838236609952, 0.011167734399699267, 0.15543092441286885, 4.674627832545459e-05, 0.042041198940047965, -0.06724865135781138, 0.06725444693388855, -0.002479882200992591, 0.10196403258081396, 0.05999479300870396, 0.1545322049058215, -0.053623347442252244, 0.009222128794187996, 0.0017569123443283942, -0.008725746665282261, 0.004558185637152071, -0.04217085106300309, -0.030094101273646708, 0.09435009345973855, 0.1452526556606855, 0.07719271875863928, 0.011849578909128593, 0.07202435771605062, 0.02808492241207288, 0.09737645524144732, 0.05440282479874325, 0.008717540121582896, -0.024125387639802775, -0.05473304673694869, -0.012973902088925737, 0.010612975358264871, 0.06705282160095224, -0.03688289354794647, 0.03564630607182102, 0.11350169359969457, 8.804375658494393e-05, 0.069451621622563, -0.05608562339484077, 0.09206022170403874, 0.08246113944643745, 0.06482478533861499, -0.010449310352733603, 0.07976899500603842, 0.11684276022984282, 0.14423925440013777, 0.1054169848674122, 0.08030048700603905, 0.07568709453678739, 0.09032155640158145, 0.08438480139133435, 0.00015534271208572322, 0.03624767793795199, -0.013950979115863234, 0.019103165344959285, 0.028642943569843277, 0.13686995278101227, 0.08087317574503952, 0.008959968151630263, 0.11483037052660794, 0.046762585598335724, -0.009500175882657719, 0.1567021992258331, -0.03126453537930064, 0.12363576667421346, 0.09897422507640363, 0.06033091246402618, 0.018762677052955874], [-9.492979487240485e-06, -0.08615834862722654, 0.03360701256620555, 0.051921304559247775, 0.038625186098627015, 0.013911299363208746, -0.017795139541627952, -0.033623274907942535, 0.0031505514389821884, -0.006581079789734578, 0.03306132216500743, -0.05955105758446647, -0.009264842823301351, -0.09252403963627236, -0.04215114634482934, -0.03685826379949037, 0.04136918599133732, 0.0581473628183503, 0.028615315147696822, -1.2440705639935986e-06, 0.05367039403140359, 0.01354981387322457, -5.719618030174615e-06, -0.0565970021183506, -0.04938914100288898, -0.06535106903058052, -0.07107128436850538, -0.027640753134239193, -0.006255315458700195, 0.0605562637003231, 0.06205520937940872, -0.048356518900598326, -0.06846826673904736, -0.061583721764529135, -0.015803018315128613, 0.021056044122839082, 0.014284251818286383, 0.0007272171915025912, -0.05609634933078525, 0.035252273477261786, 0.03525365799851438, 0.018195934935007537, 0.03671363372270716, 0.04804026911613369, 0.0012669970657167998, 2.8218870807622517e-05, -0.0018556674063356469, -0.027635074420309904, -5.652529058903879e-07, -0.06157315224995977, 0.055190283168435626, -0.00708284513502159, -0.040683266549437797, -0.06450198941073053, -0.010420554248216873, 0.06507394074363357, -0.019338741025301948, 0.008691576309321785, 0.018519541031466323, 0.043990970257504515, -0.017574800694464564, -0.017383528458984762, -0.06356735966055779, 0.029355888136545032, -0.0035383787380682116, -0.03952692382507585, 0.02441271668929471, 0.04969189654160762, 0.011333919429599932, -0.0341496623055169, -0.02810105919039509, 0.021320823198535174, -0.06780043091413106, 0.006465250417933372, -0.005197793805425383, 0.030679724836945442, 0.00030224845813980444, 2.491806763689664e-06, 0.06292553624121705, -0.028341124161484384, 0.06923638189905347, -0.007539390192872973, -0.04356571344380291, -0.09020517094212614, 0.04136175085420557, 0.03620028741704616, -0.07558607948418941, -7.527447507705839e-05, 0.0011944003478911857, -0.057743631138372074, 0.014469023731982923, 0.057906659255670644, -0.03423001493873054, 0.002104307105961866, -0.06319627031640829, 0.05841905185093862, 0.06189465938529198, 0.04730462928906638, 0.01395623795285709, 0.03623645984903716, 0.008362185592718164, 0.020963818963650398, -0.037990460432041705, -0.059615943634342784, 0.0353806216858852, -0.028153479938119706, 0.07142132629928255, -0.027527575196935272, -0.041406646097274784, 0.005253253556360407, 0.0015940387803827928, 0.07607891187134008, -8.608850424159908e-07, -0.004347085096410964, -0.01887715282642594, -0.004968333288841888, -0.10288422255092446, -0.09969579824609046, -3.1721130704802493e-06, 0.039089768847399904, -0.09825461030349851, -0.06628228223336648, -0.0661511956101981, -0.055395296715632855, -0.025074291544088047, -0.034705737932178043, -0.06629925554515932, -0.025043738745524825], [0.023908322539034656, 0.005123519906435161, 0.11365888891243482, -0.01941218354817481, 0.06929766190906594, 0.1094030014115299, 0.047937280739774095, 0.012748393577628653, 0.14481072765023686, 0.051982533495079725, 0.032134217368758135, -0.0023356059199130556, 0.05163564229429083, -0.003369711695254879, 0.13430917570658613, 0.09402143357490253, 0.06500458419898321, 0.11148954569241179, 0.06109081269579157, -0.009295625183142458, 0.12217010734554504, 0.08715778520773149, 0.052438698150605915, 0.11063844110419616, 0.08171905367955047, 0.0024882539335391576, 0.08607942860183479, 0.11743467683745075, 0.07981089015257269, -0.01458296427000742, 0.011215279879948473, 0.04923356879055974, -0.007022861932089909, -0.009591306776760407, 0.06759596258206177, 0.09240010738812113, 0.12745081075164533, -0.014657241311389362, 0.05531976441827661, 0.06908053847536108, 0.09085822417454013, 0.014385576364495228, 0.09399358055436813, 0.0979184517305161, 0.0368261625536573, 0.0009376228398481154, -0.055978444768572534, 0.11057686980253544, -0.04245608734665793, -0.028029371766909436, 0.1074371012264055, 0.04654200834579147, 0.07388697715746365, -0.020070259645106177, 0.035090158989053856, 0.015284056138828031, 0.11213237903445038, 0.08698600652025326, 0.10584709800610544, 0.02264536011446392, 0.0465023274174152, 0.0812034805136675, 0.06441331048933169, 1.7215780453011893e-05, -0.0030460663091813212, 0.13485639204488378, 0.12086016085432198, 0.050098487027383835, 0.004452243252530549, 0.04259317077436229, 0.044762560855022226, -0.03657938865189407, 0.14026803042930674, 0.12455978485175398, 0.003793298680812257, 0.06982784898420036, -0.006141395256811402, 0.043415058265891295, 0.06826522339321557, 0.12772432224784597, 0.1062649707230375, 0.09339068831454396, 0.030707725506684228, 0.018437837438365634, 0.035613534755811735, 0.028808034002593227, 0.1521066310228751, -0.0069150283383696675, -0.0485092954568939, 0.16221365060957568, 0.16044808840105942, 0.0402901553621104, 0.09422569709390889, 0.06261387871051703, 0.024336305609957625, 0.10723894373865564, 0.048888333533727665, 0.06366855541015969, -0.061388971025402056, 0.1071067458955115, 0.041671559772232324, 0.08403894747430929, 0.1250264699391869, 0.12427486246332403, 0.0555149635630608, 0.12670842220421485, 0.06130974766424815, 0.012266052519447793, 0.10845649507796862, 0.11487166061266295, 0.07692290425459417, -0.005364432591889883, 0.04672686198027144, 0.13950785797379936, 0.008392695022675306, 0.17442610489033192, -0.005366160276364684, 0.058704293904829404, 0.08191556240207512, 0.0727241165163255, 0.12444719117921284, 0.08010172723888864, 0.1511628680385596, 0.10099558421570075, 0.08939779382728405, 0.008104917087928466, 0.14319660661715922, 0.07921051004138117], [0.06759420412234995, 0.04146037516493431, 0.1665479833752779, 0.03776896598644988, 0.05641656772145701, 0.1152327198709481, 0.08800468814766592, 0.14829635937347732, -0.0018082600014323006, 0.07490921342773547, 0.14601410962616046, -0.0240414414944707, 0.08465374125198279, 0.04054228433218749, 0.03298395775180547, 0.12474862559069311, 0.10221554553342528, 0.013157790112575311, 0.07114189999665285, 0.006100527979394453, 0.19067644874356174, 0.0881394289586668, 0.05804983903832127, 0.1401136779433298, 0.024792542345653784, 0.019236870017431965, 0.0218603305728709, 0.0822896078848162, 0.08232070824494314, 0.11099875078787752, 0.09288649958469632, 0.07143158261302068, 0.10765738942123303, 0.07886522769421134, 0.11098517981356787, 0.06568657777765408, 0.12805312616872797, 0.009981455453690748, 0.12476748434557206, 0.07344066177033368, 0.02872164090432106, 0.05032703491857738, 0.022179282066567177, 0.010746378765378338, 0.040476909361960065, 5.574724322741203e-06, 0.09828929422115115, 0.14671162230261178, -0.03005871180144031, 0.011959872716590821, 0.11678971355127211, 0.10861757825172505, 0.042407251389020184, 0.11611893808304104, 0.16696970196558658, 0.06280247465096155, 0.04780722896929616, 0.08079543139060735, 0.11135226414773583, 0.014420019006665362, 0.09720684158179992, 0.002702783458442048, 0.13523367438671458, 0.10838920570468788, -1.0756893516655993e-06, 0.03684213461228668, 0.06857246618023363, 0.10090231234436349, 0.08781692241113359, 0.053475264951297466, 0.16441130950907734, 0.11215893142785487, 0.10097560530606436, 0.07873502685716216, -0.0001831237115429165, 0.15428591426534416, 0.00029066996858505994, 0.02279772892437567, 0.03979475802313627, 0.11853837009458419, 0.11208556295591045, 0.11616544658261903, 0.03798656240666728, 0.02269448650028541, 0.16748548212160355, 0.10652591119660634, 0.1203910127053521, 0.07629019016061152, 0.058787599533812636, 0.08699506385444017, 0.1122659394151869, -0.028272273976265572, 0.12466179452204132, 0.06322589204962471, 0.002516911046398664, 0.016485144585531433, 0.013625192439342789, 0.09505025171866914, 0.06693790670779906, 0.004321432718727866, 0.07134848114684367, 0.05838812336371092, 0.08779409098692129, 0.1296279674448822, 0.09687456387032906, 0.1335631008807132, 0.018425259106334763, 0.0807905384861002, 0.1124824829783937, 0.07454166157906064, 0.03385191268699022, -1.0088622837823999e-05, 0.03178564966037778, 0.10004212168086568, 0.0416891098662039, 0.1247607167843387, 0.16747622335961027, 0.061172225247360976, 0.016027265207027137, 0.06372094163564364, 0.04034152703424127, 0.06879690329178405, 0.13039422734070363, 0.08604228079702086, 0.09714962120706787, 0.10625235532203976, 0.03189500651261226, 0.08777187909892814], [-0.03661443277202645, 0.12996339740979246, 0.06481431899684781, 0.08954833209689139, 0.1361622664470873, 0.15813759242201345, 0.00974049605021893, 0.08283066296122374, 0.14040370112396272, 0.13034339566335512, 0.05940895098434272, 0.06489472352276178, 0.15760390187152848, 0.11641891760453238, 0.019579433960317343, 0.036829676822945134, 0.13346030647433738, 0.0874814895335496, 0.11407460813050908, 0.029699139718807943, 0.09731314485061304, 0.14286625132652458, 0.02891113303825491, 0.0697843295915967, 0.10692512157221305, 0.19188554030375268, 0.09360926113817632, 0.15398837870007578, 0.11272266916515457, 0.17666743950881958, 0.11758881408765795, 0.13104835405174914, 0.19023701177038618, 0.02188415885441453, 0.07362854083508803, 0.1546818534516641, 0.1255419546948326, 0.054780647647388735, 0.16330299415025892, 0.05842129471126033, 0.12364745738150434, 0.04394056935915882, 0.17390375066585073, 0.16714319289143148, 0.16256699526932103, 5.038340561720455e-06, -0.1064347009796816, 0.06234308908956599, 0.08825512645212516, 0.0963225083640649, 0.19388753401171888, 0.0032376670579359027, 0.14049566401651242, 0.17444599712188386, 0.14900995108067444, 0.17477461371466876, 0.06869098529577954, 0.16437760713149752, -0.0038995964398568727, 0.1044399588739534, -0.005324287041167066, 0.099268721611636, 0.12706507992838081, 0.07077698920777463, -0.00442449267368038, 0.16769461177043293, 0.07945570323973279, 0.1360185931653916, 0.1179202780452081, 0.03819518003244735, 0.057590596317756926, 0.08384706199673912, 0.06169012981870153, 0.02778067741653329, -0.0003121427807836212, 0.10889565447394552, 0.0037899316368681735, -0.055374720606680514, -0.0002995059042032519, -0.005903549839246086, 0.08636584139963815, 0.022293821950635586, 0.18336957351467134, 0.1803046987142322, 0.051484025478972906, 0.09116126756650272, 0.09051066879013675, 0.1479550853404033, 0.11280947260694037, 0.08010113530219931, 0.02641429475519658, 0.082469664028203, 0.10955036231287273, 0.1342646151259087, 0.0901406767541961, 0.06518324123158607, -0.03773530311328893, 0.17024333223349736, 0.09914595687254589, 0.12106079022066475, 0.20910275423831043, 0.006728849098052164, 0.12851123022541264, 0.09315554209861818, 0.11478303788355608, 0.1744720549277104, 0.1064964674863811, 0.0855803965992671, -0.037368242557905884, 0.1076166635993405, 0.03472106679193932, -0.005399552305538021, 0.0432281692247421, 0.08627289810945321, -0.06021397819098179, 0.016370781742034705, 0.14215888903879206, 0.06521785468944168, -0.04862759397514197, 0.12490967472541875, 0.12274263448762876, 0.23195717478377192, 0.22107229024890085, 0.17773507446006906, 0.1354002690472786, 0.10342999911514578, 0.18862905188925783, 0.16118190961076773], [-0.09267088870797897, 0.19647280211384738, 0.207991103144941, 0.14841960092462908, 0.19327442520838523, -0.027841807436582426, 0.12408972671712994, 0.24433657483095864, 0.16989343072006316, 0.12371027844005139, 0.10895076813843436, 0.18853864794256786, 0.11077159742518415, 0.1901469782889073, 0.1886511101139468, 0.1727518250359239, 0.14539178504540082, 0.15276599011016917, 0.07091248353324972, -0.09630927733631461, 0.1559091776261042, 0.23979991258978825, 0.07579738948951507, 0.02769922697770482, 0.06776272491302705, 0.052376412409349184, 0.11667630484820374, 0.1475756338737661, 0.11664354101365709, 0.2238896774009941, 0.18490753965833778, 0.08049805515785864, 0.19197260920741155, 0.00024225801089345869, 0.11820733442156563, 0.09820802600008896, 0.14498306824761595, 0.22779678812901785, 0.08152106177104107, 0.10493395026696198, 0.20751446782429234, 0.07715529157112161, 0.06892791679381034, 0.08569930654930677, 0.030827637021228642, 4.428124033153248e-06, -0.11699184552983577, 0.006721864616633308, -0.0013058121301169124, 0.24179514855403356, 0.22479248267160848, 0.15535117534959106, 0.1669761739201484, 0.24757266526861962, 0.22033632165447295, 0.15582879697639015, 0.21002751017979698, -0.017748049865965537, 0.11358584820125583, 0.059439766511060775, 0.22703330801523933, 0.16334331917595024, 0.16684857735997116, 0.23185923099941994, 0.001487903420927069, 0.2222594224267881, 0.10413570062602563, 0.17717974163106764, 0.16813053295458522, -0.0084073240625816, 0.18229108874996702, 0.054774587479600935, 0.18220285183975832, 0.11147278910927146, -0.007376125993610446, 0.11128862245309479, -1.739977283225553e-06, 0.18035328703771628, 0.08956951919546242, 0.17680899175213527, 0.09770454053185117, 0.18914953186803685, 0.11281984183340049, 0.20070603779440102, 0.17976463841664722, 0.01185525849881313, 0.17793949869875597, 0.09083713853518312, 0.08626851739454376, 0.18562098572076455, 0.10564387463602684, 0.15952823044493225, 0.20560859218561672, 0.1825869761934154, 0.07544600993783188, 0.08737137785315521, 0.07183946382668445, 0.10520961088191959, 0.08865959569097363, 0.2068961196872865, 0.04724646913001076, 0.11659988571603205, 0.2211540356136603, 0.14008844382686103, 0.15126064857005816, 0.1093242941070628, 0.1594150634964086, 0.10653507416584614, -0.002937636371035624, 0.12078585189898364, 0.07975610068936417, -2.764163041850497e-06, 0.18558218666497278, 0.05750823163656951, 0.026877726219854826, 0.06365941144172725, 0.1931358361082288, 0.11421251915875658, 0.0739592287357994, 0.13746611111389484, 0.09997786742789777, 0.08626504474027394, 0.09084098567961472, 0.05714665245163069, 0.10428240481044743, 0.25219178133296194, 0.10560896708745494, 0.06465017694780652], [0.14656789573660592, 0.11505442151078786, 0.22972605876539307, 0.10561378248749315, 0.14461008268299258, 0.12708454851034007, 0.1333906115133905, 0.08987425632592773, 0.15348141537121324, 0.08669146449084339, 0.2112462617058786, 0.1411952744899196, 0.17542602950911515, 0.19434891543895996, 0.1468243931990722, 0.0885717310895192, 0.11470189681567801, 0.024202024878808327, 0.1475506374496333, -0.11146417287463553, 0.24373045158484466, 0.17632989961474874, 0.1598960964123948, 0.11782565657105108, 0.10941308360519997, 0.16601274869190488, 0.1575210852733656, 0.0885404316783811, 0.134978436797876, 0.11655696821073054, 0.057801577148527246, 0.0687053439922888, 0.2145472382216846, 0.0514835372002608, 0.020490372557205323, 0.15987268437950003, 0.23342298554920823, 0.23871669934246195, 0.09561198045385036, 0.07629965497080964, 0.15952768613366472, 0.16852382949325562, 0.10573443504488751, 0.10517351446716461, 0.1682230921547787, -3.18795136161893e-07, -0.03135751887272692, 0.04304269581435873, 0.09691892403073232, 0.1875595112729043, 0.1140650953981896, 0.0623793428178849, 0.1553857358293489, 0.08423950821964336, 0.20540310777723889, 0.2305615227144984, 0.21695033650507992, 0.13481049137002785, 0.17502450780873294, 0.07518422438571694, 0.07866008461708138, 0.041078276244684644, 0.08361658559242925, 0.1849385727368809, -0.007032686796074925, 0.18721389386074697, 0.13738352554386155, 0.08030863725359581, 0.08295245419525824, 0.17725855463429355, 0.06402865854133481, 0.12325317297103039, 0.18881382000649982, 0.10882045491844866, 0.005975375193653242, 0.07120485298983907, 0.0003306942621750821, 0.13502480313935994, 0.06342988710835001, 0.09805052513635408, 0.1345937474532556, 0.07017726759635685, 0.1892365352699168, 0.07892419995532624, 0.1840287324964902, -0.001962866917496489, 0.08579851294080969, 0.023954709930879864, 0.04055257042525298, 0.11871930637136871, 0.17320432646154088, -0.08825361277998643, 0.11706317742310612, 0.13942109306705705, 0.15217329625115963, 0.17096489372407347, 0.07308568384430635, 0.16965466513302807, 0.07772488837418036, 0.14687658698611378, 0.1982362115213047, 0.09977088386056464, 0.24751607062000341, 0.20508869832768442, 0.21451300137626556, 0.24090001515310108, 0.08239111567943455, -0.01607948146683621, 0.026602629094082435, 0.04142011819486992, 0.095969364264422, 0.001359509590594966, -0.017930065399328184, 0.030376936232499607, 0.015257728110120569, 0.17087766952351638, 0.19517932871969257, 0.19573339022502761, 0.03257280471820735, 0.10988210249605627, 0.24748368598383522, 0.13081818051110233, 0.19186003547967886, 0.19275722268626327, 0.06652667530868377, 0.09567211763585745, 0.05798660357398319, 0.09438856392392199], [0.0269859779504331, 0.07413279768569041, 0.0765375914370523, 0.18368117857218413, 0.17049483603626092, 0.16369205251543678, 0.1484814503764724, 0.051185617640289956, -0.13021448134709912, 0.1458946413661809, 0.163430912210304, 0.09889059881522097, 0.032151467410319254, 0.10086337264657902, 0.1990144215135299, 0.2172854417029221, 0.23967497225893775, -0.03335429313714419, 0.09379224408168714, 0.030042690048709433, 0.19700999810064196, 0.18405548408955255, 0.08564889707435089, 0.08091397383379141, 0.047645216074440055, 0.07210664280381428, 0.10672484382105127, 0.04492175439164034, 0.1345118875496385, 0.12529739168605658, 0.10749983268024038, 0.05577334257558237, 0.10869823919485563, 0.14774802538723944, 0.19879578039903895, 0.11086772072942959, 0.08751321373579382, 0.05863286330487145, 0.0896568154876509, 0.16101260590360805, 0.09064324607704198, 0.08523169444315895, 0.08799682230813703, 0.18248457098063914, 0.09153382079533107, 3.2462942132874248e-06, 0.0226083372043245, 0.03978402174986409, 0.06743397926555209, 0.19354101347993308, 0.05114832886193797, 0.1472549305680248, 0.2362347814614724, 0.18887473667783494, 0.1187923892224139, 0.08623618267925097, 0.13638361238607327, -0.06633562259377697, 0.12252453276627462, 0.11874261337426324, 0.19609941842981646, 0.15077274944782915, 0.15582686473059362, 0.2213549477043052, -0.000983756054295969, 0.1482090590903299, 0.06525867131717301, 0.10214398242974537, 0.10912936552179948, 